{"learner":{"attributes":{},"feature_names":[],"feature_types":[],"gradient_booster":{"model":{"cats":{"enc":[],"feature_segments":[],"sorted_idx":[]},"gbtree_model_param":{"num_parallel_tree":"1","num_trees":"1000"},"iteration_indptr":[0,1,2,3,4,5,6,7,8,9,10,11,12,13,14,15,16,17,18,19,20,21,22,23,24,25,26,27,28,29,30,31,32,33,34,35,36,37,38,39,40,41,42,43,44,45,46,47,48,49,50,51,52,53,54,55,56,57,58,59,60,61,62,63,64,65,66,67,68,69,70,71,72,73,74,75,76,77,78,79,80,81,82,83,84,85,86,87,88,89,90,91,92,93,94,95,96,97,98,99,100,101,102,103,104,105,106,107,108,109,110,111,112,113,114,115,116,117,118,119,120,121,122,123,124,125,126,127,128,129,130,131,132,133,134,135,136,137,138,139,140,141,142,143,144,145,146,147,148,149,150,151,152,153,154,155,156,157,158,159,160,161,162,163,164,165,166,167,168,169,170,171,172,173,174,175,176,177,178,179,180,181,182,183,184,185,186,187,188,189,190,191,192,193,194,195,196,197,198,199,200,201,202,203,204,205,206,207,208,209,210,211,212,213,214,215,216,217,218,219,220,221,222,223,224,225,226,227,228,229,230,231,232,233,234,235,236,237,238,239,240,241,242,243,244,245,246,247,248,249,250,251,252,253,254,255,256,257,258,259,260,261,262,263,264,265,266,267,268,269,270,271,272,273,274,275,276,277,278,279,280,281,282,283,284,285,286,287,288,289,290,291,292,293,294,295,296,297,298,299,300,301,302,303,304,305,306,307,308,309,310,311,312,313,314,315,316,317,318,319,320,321,322,323,324,325,326,327,328,329,330,331,332,333,334,335,336,337,338,339,340,341,342,343,344,345,346,347,348,349,350,351,352,353,354,355,356,357,358,359,360,361,362,363,364,365,366,367,368,369,370,371,372,373,374,375,376,377,378,379,380,381,382,383,384,385,386,387,388,389,390,391,392,393,394,395,396,397,398,399,400,401,402,403,404,405,406,407,408,409,410,411,412,413,414,415,416,417,418,419,420,421,422,423,424,425,426,427,428,429,430,431,432,433,434,435,436,437,438,439,440,441,442,443,444,445,446,447,448,449,450,451,452,453,454,455,456,457,458,459,460,461,462,463,464,465,466,467,468,469,470,471,472,473,474,475,476,477,478,479,480,481,482,483,484,485,486,487,488,489,490,491,492,493,494,495,496,497,498,499,500,501,502,503,504,505,506,507,508,509,510,511,512,513,514,515,516,517,518,519,520,521,522,523,524,525,526,527,528,529,530,531,532,533,534,535,536,537,538,539,540,541,542,543,544,545,546,547,548,549,550,551,552,553,554,555,556,557,558,559,560,561,562,563,564,565,566,567,568,569,570,571,572,573,574,575,576,577,578,579,580,581,582,583,584,585,586,587,588,589,590,591,592,593,594,595,596,597,598,599,600,601,602,603,604,605,606,607,608,609,610,611,612,613,614,615,616,617,618,619,620,621,622,623,624,625,626,627,628,629,630,631,632,633,634,635,636,637,638,639,640,641,642,643,644,645,646,647,648,649,650,651,652,653,654,655,656,657,658,659,660,661,662,663,664,665,666,667,668,669,670,671,672,673,674,675,676,677,678,679,680,681,682,683,684,685,686,687,688,689,690,691,692,693,694,695,696,697,698,699,700,701,702,703,704,705,706,707,708,709,710,711,712,713,714,715,716,717,718,719,720,721,722,723,724,725,726,727,728,729,730,731,732,733,734,735,736,737,738,739,740,741,742,743,744,745,746,747,748,749,750,751,752,753,754,755,756,757,758,759,760,761,762,763,764,765,766,767,768,769,770,771,772,773,774,775,776,777,778,779,780,781,782,783,784,785,786,787,788,789,790,791,792,793,794,795,796,797,798,799,800,801,802,803,804,805,806,807,808,809,810,811,812,813,814,815,816,817,818,819,820,821,822,823,824,825,826,827,828,829,830,831,832,833,834,835,836,837,838,839,840,841,842,843,844,845,846,847,848,849,850,851,852,853,854,855,856,857,858,859,860,861,862,863,864,865,866,867,868,869,870,871,872,873,874,875,876,877,878,879,880,881,882,883,884,885,886,887,888,889,890,891,892,893,894,895,896,897,898,899,900,901,902,903,904,905,906,907,908,909,910,911,912,913,914,915,916,917,918,919,920,921,922,923,924,925,926,927,928,929,930,931,932,933,934,935,936,937,938,939,940,941,942,943,944,945,946,947,948,949,950,951,952,953,954,955,956,957,958,959,960,961,962,963,964,965,966,967,968,969,970,971,972,973,974,975,976,977,978,979,980,981,982,983,984,985,986,987,988,989,990,991,992,993,994,995,996,997,998,999,1000],"tree_info":[0,0,0,0,0,0,0,0,0,0,0,0,0,0,0,0,0,0,0,0,0,0,0,0,0,0,0,0,0,0,0,0,0,0,0,0,0,0,0,0,0,0,0,0,0,0,0,0,0,0,0,0,0,0,0,0,0,0,0,0,0,0,0,0,0,0,0,0,0,0,0,0,0,0,0,0,0,0,0,0,0,0,0,0,0,0,0,0,0,0,0,0,0,0,0,0,0,0,0,0,0,0,0,0,0,0,0,0,0,0,0,0,0,0,0,0,0,0,0,0,0,0,0,0,0,0,0,0,0,0,0,0,0,0,0,0,0,0,0,0,0,0,0,0,0,0,0,0,0,0,0,0,0,0,0,0,0,0,0,0,0,0,0,0,0,0,0,0,0,0,0,0,0,0,0,0,0,0,0,0,0,0,0,0,0,0,0,0,0,0,0,0,0,0,0,0,0,0,0,0,0,0,0,0,0,0,0,0,0,0,0,0,0,0,0,0,0,0,0,0,0,0,0,0,0,0,0,0,0,0,0,0,0,0,0,0,0,0,0,0,0,0,0,0,0,0,0,0,0,0,0,0,0,0,0,0,0,0,0,0,0,0,0,0,0,0,0,0,0,0,0,0,0,0,0,0,0,0,0,0,0,0,0,0,0,0,0,0,0,0,0,0,0,0,0,0,0,0,0,0,0,0,0,0,0,0,0,0,0,0,0,0,0,0,0,0,0,0,0,0,0,0,0,0,0,0,0,0,0,0,0,0,0,0,0,0,0,0,0,0,0,0,0,0,0,0,0,0,0,0,0,0,0,0,0,0,0,0,0,0,0,0,0,0,0,0,0,0,0,0,0,0,0,0,0,0,0,0,0,0,0,0,0,0,0,0,0,0,0,0,0,0,0,0,0,0,0,0,0,0,0,0,0,0,0,0,0,0,0,0,0,0,0,0,0,0,0,0,0,0,0,0,0,0,0,0,0,0,0,0,0,0,0,0,0,0,0,0,0,0,0,0,0,0,0,0,0,0,0,0,0,0,0,0,0,0,0,0,0,0,0,0,0,0,0,0,0,0,0,0,0,0,0,0,0,0,0,0,0,0,0,0,0,0,0,0,0,0,0,0,0,0,0,0,0,0,0,0,0,0,0,0,0,0,0,0,0,0,0,0,0,0,0,0,0,0,0,0,0,0,0,0,0,0,0,0,0,0,0,0,0,0,0,0,0,0,0,0,0,0,0,0,0,0,0,0,0,0,0,0,0,0,0,0,0,0,0,0,0,0,0,0,0,0,0,0,0,0,0,0,0,0,0,0,0,0,0,0,0,0,0,0,0,0,0,0,0,0,0,0,0,0,0,0,0,0,0,0,0,0,0,0,0,0,0,0,0,0,0,0,0,0,0,0,0,0,0,0,0,0,0,0,0,0,0,0,0,0,0,0,0,0,0,0,0,0,0,0,0,0,0,0,0,0,0,0,0,0,0,0,0,0,0,0,0,0,0,0,0,0,0,0,0,0,0,0,0,0,0,0,0,0,0,0,0,0,0,0,0,0,0,0,0,0,0,0,0,0,0,0,0,0,0,0,0,0,0,0,0,0,0,0,0,0,0,0,0,0,0,0,0,0,0,0,0,0,0,0,0,0,0,0,0,0,0,0,0,0,0,0,0,0,0,0,0,0,0,0,0,0,0,0,0,0,0,0,0,0,0,0,0,0,0,0,0,0,0,0,0,0,0,0,0,0,0,0,0,0,0,0,0,0,0,0,0,0,0,0,0,0,0,0,0,0,0,0,0,0,0,0,0,0,0,0,0,0,0,0,0,0,0,0,0,0,0,0,0,0,0,0,0,0,0,0,0,0,0,0,0,0,0,0,0,0,0,0,0,0,0,0,0,0,0,0,0,0,0,0,0,0,0,0,0,0,0,0,0,0,0,0,0,0,0,0,0,0,0,0,0,0,0,0,0,0,0,0,0,0,0,0,0,0,0,0,0,0,0,0,0,0,0,0,0,0,0,0,0,0,0,0,0,0,0,0,0,0,0,0,0,0,0,0,0,0,0,0,0,0,0,0,0,0,0,0,0,0,0,0,0,0,0,0,0,0,0,0,0,0,0,0,0,0,0,0,0,0,0,0,0,0,0,0,0,0,0,0,0,0,0,0,0,0,0,0,0,0,0,0,0,0,0,0,0,0,0,0,0,0,0,0,0,0,0,0,0,0,0,0,0,0,0,0,0,0,0,0,0,0,0,0,0,0,0,0,0,0,0,0,0,0],"trees":[{"base_weights":[1.005313E0,-1.3929096E1,2.3602741E1,-1.1490201E0,-3.353722E-1,9.758198E0,1.3821334E0,2.2665863E0,-1.7982504E0,2.531993E-1,6.2503844E-1,1.7805671E-2,1.6708237E-1,-1.6907603E-1,-2.7146572E-2],"categories":[],"categories_nodes":[],"categories_segments":[],"categories_sizes":[],"default_left":[0,0,0,0,0,0,0,0,0,0,0,0,0,0,0],"id":0,"left_children":[1,3,5,-1,7,9,-1,11,13,-1,-1,-1,-1,-1,-1],"loss_changes":[2.8002064E4,6.14434E3,1.5759785E3,0E0,8.400922E1,5.256421E1,0E0,1.524099E1,2.5989185E1,0E0,0E0,0E0,0E0,0E0,0E0],"parents":[2147483647,0,0,1,1,2,2,4,4,5,5,7,7,8,8],"right_children":[2,4,6,-1,8,10,-1,12,14,-1,-1,-1,-1,-1,-1],"split_conditions":[7.976889E-1,7.2126025E-1,8.404617E-1,-1.1490201E0,1.5583562E2,8.0998266E-1,1.3821334E0,7.7513665E-1,7.65714E-1,2.531993E-1,6.2503844E-1,1.7805671E-2,1.6708237E-1,-1.6907603E-1,-2.7146572E-2],"split_indices":[1,0,1,0,2,0,0,1,1,0,0,0,0,0,0],"split_type":[0,0,0,0,0,0,0,0,0,0,0,0,0,0,0],"sum_hessian":[8.1E1,4.9E1,3.2E1,2.9E1,2E1,8E0,2.4E1,7E0,1.3E1,4E0,4E0,3E0,4E0,5E0,8E0],"tree_param":{"num_deleted":"0","num_feature":"5","num_nodes":"15","size_leaf_vector":"1"}},{"base_weights":[3.235524E-1,-1.5489544E1,2.1708225E1,-2.2074398E1,-1.7632923E0,2.419339E-1,2.379621E1,-1.4094683E0,-9.145743E-1,-3.0170302E0,8.291092E-1,1.0029373E0,1.4632629E0,1.8501664E-2,-1.69637E-1,-2.0703888E-2,7.7711105E-2],"categories":[],"categories_nodes":[],"categories_segments":[],"categories_sizes":[],"default_left":[0,0,0,0,0,0,0,0,0,0,0,0,0,0,0,0,0],"id":1,"left_children":[1,3,5,7,9,-1,11,-1,-1,13,15,-1,-1,-1,-1,-1,-1],"loss_changes":[2.7050723E4,4.1188037E3,1.0824531E3,2.0147852E2,5.4504528E1,0E0,2.6185547E1,0E0,0E0,1.5253494E1,6.052274E0,0E0,0E0,0E0,0E0,0E0,0E0],"parents":[2147483647,0,0,1,1,2,2,3,3,4,4,6,6,9,9,10,10],"right_children":[2,4,6,8,10,-1,12,-1,-1,14,16,-1,-1,-1,-1,-1,-1],"split_conditions":[7.889196E-1,7.2126025E-1,8.0998266E-1,6.6846114E-1,7.6461095E-1,2.419339E-1,8.35273E-1,-1.4094683E0,-9.145743E-1,1.4730025E2,7.6740515E-1,1.0029373E0,1.4632629E0,1.8501664E-2,-1.69637E-1,-2.0703888E-2,7.7711105E-2],"split_indices":[0,0,0,0,4,0,4,0,0,2,4,0,0,0,0,0,0],"split_type":[0,0,0,0,0,0,0,0,0,0,0,0,0,0,0,0,0],"sum_hessian":[7.8E1,4.5E1,3.3E1,3E1,1.5E1,4E0,2.9E1,9E0,2.1E1,1E1,5E0,2E1,9E0,1E0,9E0,2E0,3E0],"tree_param":{"num_deleted":"0","num_feature":"5","num_nodes":"17","size_leaf_vector":"1"}},{"base_weights":[3.2509834E-1,-1.318756E1,2.2679668E1,-2.1026865E1,-1.1611893E0,1.1645617E1,1.2525892E0,-1.3303012E0,-8.8172597E-1,-2.5185893E0,2.4258423E0,1.4618377E-1,6.3059974E-1,1.8038942E-2,-1.3750142E-1,1.6294159E-1,-4.3477632E-2],"categories":[],"categories_nodes":[],"categories_segments":[],"categories_sizes":[],"default_left":[0,0,0,0,0,0,0,0,0,0,0,0,0,0,0,0,0],"id":2,"left_children":[1,3,5,7,9,11,-1,-1,-1,13,15,-1,-1,-1,-1,-1,-1],"loss_changes":[2.3256383E4,4.5009463E3,4.673047E2,7.968262E1,1.0349043E2,2.2127502E1,0E0,0E0,0E0,1.0988121E1,1.9303902E1,0E0,0E0,0E0,0E0,0E0,0E0],"parents":[2147483647,0,0,1,1,2,2,3,3,4,4,5,5,9,9,10,10],"right_children":[2,4,6,8,10,12,-1,-1,-1,14,16,-1,-1,-1,-1,-1,-1],"split_conditions":[7.8287375E-1,7.2126025E-1,8.173028E-1,6.754579E-1,7.6461095E-1,8.0429125E-1,1.2525892E0,-1.3303012E0,-8.8172597E-1,1.4730025E2,8.009539E-1,1.4618377E-1,6.3059974E-1,1.8038942E-2,-1.3750142E-1,1.6294159E-1,-4.3477632E-2],"split_indices":[4,0,4,0,4,0,0,0,0,2,0,0,0,0,0,0,0],"split_type":[0,0,0,0,0,0,0,0,0,0,0,0,0,0,0,0,0],"sum_hessian":[7.5E1,4.7E1,2.8E1,2.8E1,1.9E1,6E0,2.2E1,8E0,2E1,1.4E1,5E0,1E0,5E0,1E0,1.3E1,4E0,1E0],"tree_param":{"num_deleted":"0","num_feature":"5","num_nodes":"17","size_leaf_vector":"1"}},{"base_weights":[-2.4225317E-1,-1.4129092E1,1.8767164E1,-2.0254679E1,-1.4332784E0,4.9143844E0,2.2896841E1,-1.2695221E0,-8.5923785E-1,-1.4389096E-1,-2.5240535E-1,2.8293E-1,1.2916819E0,9.0671444E-1,1.4520768E0,8.697396E-2,-6.0839843E-2,1.3926697E-1,-4.2390823E-2],"categories":[],"categories_nodes":[],"categories_segments":[],"categories_sizes":[],"default_left":[0,0,0,0,0,0,0,0,0,0,0,0,0,0,0,0,0,0,0],"id":3,"left_children":[1,3,5,7,9,11,13,-1,-1,-1,15,-1,17,-1,-1,-1,-1,-1,-1],"loss_changes":[2.3759447E4,4.0149746E3,2.0613613E3,1.1549512E2,2.9978363E1,1.9651611E1,3.2202148E2,0E0,0E0,0E0,2.3247114E1,0E0,1.1948488E1,0E0,0E0,0E0,0E0,0E0,0E0],"parents":[2147483647,0,0,1,1,2,2,3,3,4,4,5,5,6,6,10,10,12,12],"right_children":[2,4,6,8,10,12,14,-1,-1,-1,16,-1,18,-1,-1,-1,-1,-1,-1],"split_conditions":[7.8116125E-1,7.311525E-1,8.170268E-1,6.759285E-1,7.6509684E-1,1.3693344E2,8.6548424E-1,-1.2695221E0,-8.5923785E-1,-1.4389096E-1,7.7245975E-1,2.8293E-1,7.9304117E-1,9.0671444E-1,1.4520768E0,8.697396E-2,-6.0839843E-2,1.3926697E-1,-4.2390823E-2],"split_indices":[1,1,1,1,1,3,1,0,0,0,1,0,1,0,0,0,0,0,0],"split_type":[0,0,0,0,0,0,0,0,0,0,0,0,0,0,0,0,0,0,0],"sum_hessian":[8.8E1,5.1E1,3.7E1,3.4E1,1.7E1,9E0,2.8E1,1E1,2.4E1,7E0,1E1,7E0,2E0,1.8E1,1E1,3E0,7E0,1E0,1E0],"tree_param":{"num_deleted":"0","num_feature":"5","num_nodes":"19","size_leaf_vector":"1"}},{"base_weights":[-3.572079E-1,-1.2695456E1,1.9469591E1,-1.9258036E1,-9.042969E-1,2.7555606E-1,2.1765348E1,-1.2062278E0,-8.270554E-1,2.8853264E0,-1.742779E0,8.502556E-1,1.378808E0,2.1185303E-2,1.7823157E-1,-1.5126103E-1,-3.841227E-2],"categories":[],"categories_nodes":[],"categories_segments":[],"categories_sizes":[],"default_left":[0,0,0,0,0,0,0,0,0,0,0,0,0,0,0,0,0],"id":4,"left_children":[1,3,5,7,9,-1,11,-1,-1,13,15,-1,-1,-1,-1,-1,-1],"loss_changes":[2.1040553E4,4.083748E3,9.37542E2,5.0500977E1,6.857912E1,0E0,3.0556836E2,0E0,0E0,5.178406E0,1.8922184E1,0E0,0E0,0E0,0E0,0E0,0E0],"parents":[2147483647,0,0,1,1,2,2,3,3,4,4,6,6,9,9,10,10],"right_children":[2,4,6,8,10,-1,12,-1,-1,14,16,-1,-1,-1,-1,-1,-1],"split_conditions":[7.976889E-1,7.2126025E-1,8.213558E-1,6.754579E-1,1.4771031E2,2.7555606E-1,8.6548424E-1,-1.2062278E0,-8.270554E-1,7.7480155E-1,7.65714E-1,8.502556E-1,1.378808E0,2.1185303E-2,1.7823157E-1,-1.5126103E-1,-3.841227E-2],"split_indices":[1,0,0,0,2,0,1,0,0,0,1,0,0,0,0,0,0],"split_type":[0,0,0,0,0,0,0,0,0,0,0,0,0,0,0,0,0],"sum_hessian":[8.4E1,5.2E1,3.2E1,3.3E1,1.9E1,5E0,2.7E1,9E0,2.4E1,3E0,1.6E1,1.7E1,1E1,1E0,2E0,6E0,1E1],"tree_param":{"num_deleted":"0","num_feature":"5","num_nodes":"17","size_leaf_vector":"1"}},{"base_weights":[-8.8503504E-1,-1.2597947E1,1.6233404E1,-1.818273E1,-1.3532025E0,4.531169E0,1.983301E1,-1.1660883E0,-1.5605949E1,-2.846495E0,-8.39927E-3,2.5910446E-1,1.2849935E0,8.3258885E-1,1.2349374E0,-2.1268463E-1,-7.939486E-1,-1.3835907E-3,-1.5976945E-1,7.835636E-2,-3.975563E-2,1.3674545E-1,-4.037094E-2],"categories":[],"categories_nodes":[],"categories_segments":[],"categories_sizes":[],"default_left":[0,0,0,0,0,0,0,0,0,0,0,0,0,0,0,0,0,0,0,0,0,0,0],"id":5,"left_children":[1,3,5,7,9,11,13,-1,15,17,19,-1,21,-1,-1,-1,-1,-1,-1,-1,-1,-1,-1],"loss_changes":[1.8250117E4,3.3665654E3,1.4687002E3,1.12759766E2,3.8131596E1,1.4471039E1,2.2134766E1,0E0,1.6140137E1,8.76281E0,1.4880407E1,0E0,1.1309681E1,0E0,0E0,0E0,0E0,0E0,0E0,0E0,0E0,0E0,0E0],"parents":[2147483647,0,0,1,1,2,2,3,3,4,4,5,5,6,6,8,8,9,9,10,10,12,12],"right_children":[2,4,6,8,10,12,14,-1,16,18,20,-1,22,-1,-1,-1,-1,-1,-1,-1,-1,-1,-1],"split_conditions":[7.889196E-1,7.2126025E-1,8.213558E-1,6.6846114E-1,7.72671E-1,1.3693344E2,8.7589127E-1,-1.1660883E0,1.3750961E2,1.5630074E2,7.7614236E-1,2.5910446E-1,8.009539E-1,8.3258885E-1,1.2349374E0,-2.1268463E-1,-7.939486E-1,-1.3835907E-3,-1.5976945E-1,7.835636E-2,-3.975563E-2,1.3674545E-1,-4.037094E-2],"split_indices":[0,0,0,0,0,3,0,0,3,2,0,0,0,0,0,0,0,0,0,0,0,0,0],"split_type":[0,0,0,0,0,0,0,0,0,0,0,0,0,0,0,0,0,0,0,0,0,0,0],"sum_hessian":[8.9E1,5.3E1,3.6E1,3.5E1,1.8E1,9E0,2.7E1,9E0,2.6E1,8E0,1E1,7E0,2E0,1.9E1,8E0,1E0,2.5E1,1E0,7E0,3E0,7E0,1E0,1E0],"tree_param":{"num_deleted":"0","num_feature":"5","num_nodes":"23","size_leaf_vector":"1"}},{"base_weights":[4.591379E-1,-1.2074933E1,1.681031E1,-1.8297136E1,-1.033766E0,9.418149E0,1.0820972E0,-1.1209964E0,-7.151529E-1,1.1649841E0,-1.7451935E0,2.1559046E-1,6.025386E-1,1.5144831E-1,-5.43663E-2,-1.141922E-1,8.61969E-3],"categories":[],"categories_nodes":[],"categories_segments":[],"categories_sizes":[],"default_left":[0,0,0,0,0,0,0,0,0,0,0,0,0,0,0,0,0],"id":6,"left_children":[1,3,5,7,9,11,-1,-1,-1,13,15,-1,-1,-1,-1,-1,-1],"loss_changes":[1.7008617E4,3.2100034E3,1.081956E3,1.733291E2,3.0189644E1,1.6312842E2,0E0,0E0,0E0,2.4284803E1,1.485445E1,0E0,0E0,0E0,0E0,0E0,0E0],"parents":[2147483647,0,0,1,1,2,2,3,3,4,4,5,5,9,9,10,10],"right_children":[2,4,6,8,10,12,-1,-1,-1,14,16,-1,-1,-1,-1,-1,-1],"split_conditions":[7.889196E-1,7.2126025E-1,8.6935127E-1,6.921961E-1,1.5583562E2,8.0998266E-1,1.0820972E0,-1.1209964E0,-7.151529E-1,7.7614236E-1,7.820677E-1,2.1559046E-1,6.025386E-1,1.5144831E-1,-5.43663E-2,-1.141922E-1,8.61969E-3],"split_indices":[0,0,0,1,2,0,0,0,0,0,0,0,0,0,0,0,0],"split_type":[0,0,0,0,0,0,0,0,0,0,0,0,0,0,0,0,0],"sum_hessian":[8.1E1,4.6E1,3.5E1,2.9E1,1.7E1,1.5E1,2E1,1.2E1,1.7E1,4E0,1.3E1,6E0,9E0,2E0,2E0,1E1,3E0],"tree_param":{"num_deleted":"0","num_feature":"5","num_nodes":"17","size_leaf_vector":"1"}},{"base_weights":[-1.0176136E0,-9.876256E0,1.7449066E1,-8.2117224E-1,-2.0175171E-1,1.1714217E1,1.1841519E0,-2.346838E0,9.5574445E-1,1.7542611E-1,6.736632E-1,1.5060426E-3,-1.3453533E-1,1.0604541E-2,1.4738846E-1],"categories":[],"categories_nodes":[],"categories_segments":[],"categories_sizes":[],"default_left":[0,0,0,0,0,0,0,0,0,0,0,0,0,0,0],"id":7,"left_children":[1,3,5,-1,7,9,-1,11,13,-1,-1,-1,-1,-1,-1],"loss_changes":[1.2605148E4,3.2904087E3,6.1634375E2,0E0,5.6867416E1,1.6924194E2,0E0,6.6199417E0,2.1595455E1,0E0,0E0,0E0,0E0,0E0,0E0],"parents":[2147483647,0,0,1,1,2,2,4,4,5,5,7,7,8,8],"right_children":[2,4,6,-1,8,10,-1,12,14,-1,-1,-1,-1,-1,-1],"split_conditions":[7.8287375E-1,7.2126025E-1,8.735439E-1,-8.2117224E-1,7.72671E-1,8.0998266E-1,1.1841519E0,1.5630074E2,1.3719826E2,1.7542611E-1,6.736632E-1,1.5060426E-3,-1.3453533E-1,1.0604541E-2,1.4738846E-1],"split_indices":[4,0,0,0,0,0,0,2,3,0,0,0,0,0,0],"split_type":[0,0,0,0,0,0,0,0,0,0,0,0,0,0,0],"sum_hessian":[7.5E1,5.1E1,2.4E1,3E1,2.1E1,1.4E1,1E1,7E0,1.4E1,3E0,1.1E1,1E0,6E0,1.1E1,3E0],"tree_param":{"num_deleted":"0","num_feature":"5","num_nodes":"15","size_leaf_vector":"1"}},{"base_weights":[1.9730384E0,-9.478614E0,1.6466408E1,-1.5842305E1,-8.453631E-1,2.1820362E-1,1.822102E1,-1.0336353E0,-6.7388886E-1,7.9115295E-1,-1.552713E0,7.2995925E-1,1.1904117E0,-5.0511934E-2,1.1973782E-1,-1.0544572E-1,-9.2636107E-4],"categories":[],"categories_nodes":[],"categories_segments":[],"categories_sizes":[],"default_left":[0,0,0,0,0,0,0,0,0,0,0,0,0,0,0,0,0],"id":8,"left_children":[1,3,5,7,9,-1,11,-1,-1,13,15,-1,-1,-1,-1,-1,-1],"loss_changes":[1.393184E4,2.5687568E3,7.061738E2,2.976123E1,2.5537815E1,0E0,2.999707E2,0E0,0E0,2.26403E1,1.2760677E1,0E0,0E0,0E0,0E0,0E0,0E0],"parents":[2147483647,0,0,1,1,2,2,3,3,4,4,6,6,9,9,10,10],"right_children":[2,4,6,8,10,-1,12,-1,-1,14,16,-1,-1,-1,-1,-1,-1],"split_conditions":[7.976889E-1,7.2126025E-1,8.213558E-1,6.662137E-1,1.5583562E2,2.1820362E-1,8.7526876E-1,-1.0336353E0,-6.7388886E-1,1.5056207E2,7.820677E-1,7.2995925E-1,1.1904117E0,-5.0511934E-2,1.1973782E-1,-1.0544572E-1,-9.2636107E-4],"split_indices":[1,0,0,0,2,0,1,0,0,2,0,0,0,0,0,0,0],"split_type":[0,0,0,0,0,0,0,0,0,0,0,0,0,0,0,0,0],"sum_hessian":[8.2E1,4.6E1,3.6E1,2.6E1,2E1,5E0,3.1E1,6E0,2E1,6E0,1.4E1,2.1E1,1E1,3E0,3E0,1E1,4E0],"tree_param":{"num_deleted":"0","num_feature":"5","num_nodes":"17","size_leaf_vector":"1"}},{"base_weights":[8.027151E-1,-9.816992E0,1.4397142E1,-1.4753958E1,-9.854198E-1,6.4857583E0,1.8103382E1,-8.1641734E-1,-1.0263909E1,-2.4223683E0,2.7984896E-1,3.2776508E0,4.612815E-1,7.211314E-1,1.1275164E0,-1.521122E-1,-5.340926E-1,-1.3728428E-1,4.104233E-3,1.0720139E-1,-5.4584283E-2,2.061133E-1,7.0123486E-2],"categories":[],"categories_nodes":[],"categories_segments":[],"categories_sizes":[],"default_left":[0,0,0,0,0,0,0,0,0,0,0,0,0,0,0,0,0,0,0,0,0,0,0],"id":9,"left_children":[1,3,5,7,9,11,13,-1,15,17,19,21,-1,-1,-1,-1,-1,-1,-1,-1,-1,-1,-1],"loss_changes":[1.2845794E4,2.1655195E3,1.026124E3,5.8617676E1,3.5222294E1,9.281891E1,1.0033594E2,0E0,7.038574E-1,7.512974E0,3.0465248E1,6.8890915E0,0E0,0E0,0E0,0E0,0E0,0E0,0E0,0E0,0E0,0E0,0E0],"parents":[2147483647,0,0,1,1,2,2,3,3,4,4,5,5,6,6,8,8,9,9,10,10,11,11],"right_children":[2,4,6,8,10,12,14,-1,16,18,20,22,-1,-1,-1,-1,-1,-1,-1,-1,-1,-1,-1],"split_conditions":[7.8748935E-1,7.2126025E-1,8.404617E-1,7.044736E-1,7.72671E-1,8.0998266E-1,8.7526876E-1,-8.1641734E-1,6.962107E-1,7.65714E-1,7.7614236E-1,8.0429125E-1,4.612815E-1,7.211314E-1,1.1275164E0,-1.521122E-1,-5.340926E-1,-1.3728428E-1,4.104233E-3,1.0720139E-1,-5.4584283E-2,2.061133E-1,7.0123486E-2],"split_indices":[0,0,1,1,0,0,1,0,0,1,0,0,0,0,0,0,0,0,0,0,0,0,0],"split_type":[0,0,0,0,0,0,0,0,0,0,0,0,0,0,0,0,0,0,0,0,0,0,0],"sum_hessian":[8.7E1,4.9E1,3.8E1,3.1E1,1.8E1,1.3E1,2.5E1,2.1E1,1E1,8E0,1E1,7E0,6E0,1.6E1,9E0,1E0,9E0,7E0,1E0,4E0,6E0,4E0,3E0],"tree_param":{"num_deleted":"0","num_feature":"5","num_nodes":"23","size_leaf_vector":"1"}},{"base_weights":[-7.576131E-1,-9.829531E0,1.3375303E1,-1.4695553E1,-1.0197064E0,3.110981E0,1.5745624E1,-9.579479E-1,-1.2241975E1,9.5616406E-1,-1.6969261E0,1.8386574E-1,9.4131976E-1,1.2754819E1,1.0076336E0,-1.4830934E-1,-6.2471795E-1,1.0066681E-2,1.182579E-1,-1.2461412E-1,-2.9501725E-2,1.1610603E-1,-4.550705E-2,6.949763E-1,3.883625E-1],"categories":[],"categories_nodes":[],"categories_segments":[],"categories_sizes":[],"default_left":[0,0,0,0,0,0,0,0,0,0,0,0,0,0,0,0,0,0,0,0,0,0,0,0,0],"id":10,"left_children":[1,3,5,7,9,11,13,-1,15,17,19,-1,21,23,-1,-1,-1,-1,-1,-1,-1,-1,-1,-1,-1],"loss_changes":[1.1798824E4,2.385667E3,8.268867E2,1.597041E2,2.9722607E1,6.368492E0,1.2519385E2,0E0,2.3807129E1,5.905123E0,1.2615437E1,0E0,9.782953E0,6.2248535E0,0E0,0E0,0E0,0E0,0E0,0E0,0E0,0E0,0E0,0E0,0E0],"parents":[2147483647,0,0,1,1,2,2,3,3,4,4,5,5,6,6,8,8,9,9,10,10,12,12,13,13],"right_children":[2,4,6,8,10,12,14,-1,16,18,20,-1,22,24,-1,-1,-1,-1,-1,-1,-1,-1,-1,-1,-1],"split_conditions":[7.907819E-1,7.311525E-1,8.170268E-1,6.759285E-1,1.5583562E2,1.3693344E2,8.6548424E-1,-9.579479E-1,1.3750961E2,1.5537666E2,7.65714E-1,1.8386574E-1,7.9304117E-1,1.372818E2,1.0076336E0,-1.4830934E-1,-6.2471795E-1,1.0066681E-2,1.182579E-1,-1.2461412E-1,-2.9501725E-2,1.1610603E-1,-4.550705E-2,6.949763E-1,3.883625E-1],"split_indices":[1,1,1,1,2,3,1,0,3,2,1,0,1,3,0,0,0,0,0,0,0,0,0,0,0],"split_type":[0,0,0,0,0,0,0,0,0,0,0,0,0,0,0,0,0,0,0,0,0,0,0,0,0],"sum_hessian":[9E1,5.5E1,3.5E1,3.5E1,2E1,7E0,2.8E1,1E1,2.5E1,5E0,1.5E1,5E0,2E0,1.9E1,9E0,1E0,2.4E1,4E0,1E0,8E0,7E0,1E0,1E0,1.4E1,5E0],"tree_param":{"num_deleted":"0","num_feature":"5","num_nodes":"25","size_leaf_vector":"1"}},{"base_weights":[-7.9316884E-1,-1.0965288E1,1.2598564E1,-1.3963343E1,-1.3071874E0,3.3789024E0,1.47828045E1,-9.2140436E-1,-5.574582E-1,1.29764555E-2,-1.4732097E0,3.3963393E-2,1.8337631E-1,6.198123E-1,1.0085794E0,-8.2082875E-2,-2.3839824E-2],"categories":[],"categories_nodes":[],"categories_segments":[],"categories_sizes":[],"default_left":[0,0,0,0,0,0,0,0,0,0,0,0,0,0,0,0,0],"id":11,"left_children":[1,3,5,7,9,11,13,-1,-1,-1,15,-1,-1,-1,-1,-1,-1],"loss_changes":[1.1035931E4,1.3137007E3,6.548789E2,2.3430322E2,3.5036602E0,3.7421951E0,1.100459E2,0E0,0E0,0E0,1.0635433E0,0E0,0E0,0E0,0E0,0E0,0E0],"parents":[2147483647,0,0,1,1,2,2,3,3,4,4,5,5,6,6,10,10],"right_children":[2,4,6,8,10,12,14,-1,-1,-1,16,-1,-1,-1,-1,-1,-1],"split_conditions":[7.790632E-1,7.2126025E-1,8.0998266E-1,6.754579E-1,1.4730025E2,7.863607E-1,8.7526876E-1,-9.2140436E-1,-5.574582E-1,1.29764555E-2,7.6461095E-1,3.3963393E-2,1.8337631E-1,6.198123E-1,1.0085794E0,-8.2082875E-2,-2.3839824E-2],"split_indices":[1,0,0,0,2,0,1,0,0,0,4,0,0,0,0,0,0],"split_type":[0,0,0,0,0,0,0,0,0,0,0,0,0,0,0,0,0],"sum_hessian":[7.9E1,4.5E1,3.4E1,3.4E1,1.1E1,7E0,2.7E1,1.1E1,2.3E1,1E0,1E1,1E0,6E0,2.1E1,6E0,8E0,2E0],"tree_param":{"num_deleted":"0","num_feature":"5","num_nodes":"17","size_leaf_vector":"1"}},{"base_weights":[-3.5026342E-1,-9.275827E0,1.3327952E1,-1.322203E1,-1.0699167E0,2.7445374E0,1.566472E1,-8.885824E-1,-1.0775437E1,1.365036E0,-1.4855794E0,1.8355809E-1,1.1317787E0,5.8187234E-1,1.0049254E0,-1.3066483E-1,-5.508346E-1,1.2652206E-2,8.9725494E-2,-1.122449E-1,-2.7028179E-2,-4.895401E-2,1.0808792E-1],"categories":[],"categories_nodes":[],"categories_segments":[],"categories_sizes":[],"default_left":[0,0,0,0,0,0,0,0,0,0,0,0,0,0,0,0,0,0,0,0,0,0,0],"id":12,"left_children":[1,3,5,7,9,11,13,-1,15,17,19,-1,21,-1,-1,-1,-1,-1,-1,-1,-1,-1,-1],"loss_changes":[9.890491E3,1.5725806E3,7.483989E2,1.7582764E2,1.9233896E1,6.3060074E0,2.303628E2,0E0,1.846997E1,9.7862434E-1,9.550011E0,0E0,1.0813103E1,0E0,0E0,0E0,0E0,0E0,0E0,0E0,0E0,0E0,0E0],"parents":[2147483647,0,0,1,1,2,2,3,3,4,4,5,5,6,6,8,8,9,9,10,10,12,12],"right_children":[2,4,6,8,10,12,14,-1,16,18,20,-1,22,-1,-1,-1,-1,-1,-1,-1,-1,-1,-1],"split_conditions":[7.889196E-1,7.148907E-1,8.0998266E-1,6.6846114E-1,1.4730025E2,8.0322087E-1,8.735439E-1,-8.885824E-1,1.3750961E2,7.7480155E-1,7.65714E-1,1.8355809E-1,8.075155E-1,5.8187234E-1,1.0049254E0,-1.3066483E-1,-5.508346E-1,1.2652206E-2,8.9725494E-2,-1.122449E-1,-2.7028179E-2,-4.895401E-2,1.0808792E-1],"split_indices":[0,0,0,0,2,0,0,0,3,0,1,0,0,0,0,0,0,0,0,0,0,0,0],"split_type":[0,0,0,0,0,0,0,0,0,0,0,0,0,0,0,0,0,0,0,0,0,0,0],"sum_hessian":[7.9E1,4.8E1,3.1E1,3.2E1,1.6E1,6E0,2.5E1,9E0,2.3E1,2E0,1.4E1,3E0,3E0,1.5E1,1E1,1E0,2.2E1,1E0,1E0,7E0,7E0,1E0,2E0],"tree_param":{"num_deleted":"0","num_feature":"5","num_nodes":"23","size_leaf_vector":"1"}},{"base_weights":[2.6785715E-2,-8.452379E0,1.2139113E1,-1.2455845E1,-6.431156E-1,4.6418166E0,1.5381965E1,-1.56576395E1,-9.880646E0,-2.0841217E0,2.510643E-1,2.9515553E0,3.2089356E-1,5.798952E-1,9.759931E-1,-8.1476206E-1,-2.0016098E-1,-1.273983E-1,-5.059941E-1,-1.240626E-1,7.466507E-3,1.02722935E-1,-4.537201E-2,1.7800383E-1,3.753306E-2],"categories":[],"categories_nodes":[],"categories_segments":[],"categories_sizes":[],"default_left":[0,0,0,0,0,0,0,0,0,0,0,0,0,0,0,0,0,0,0,0,0,0,0,0,0],"id":13,"left_children":[1,3,5,7,9,11,13,15,17,19,21,23,-1,-1,-1,-1,-1,-1,-1,-1,-1,-1,-1,-1,-1],"loss_changes":[8.729607E3,1.5551953E3,7.795415E2,1.1738623E2,2.3716583E1,1.7081238E1,1.4940381E2,3.1367676E1,1.1053955E1,6.5793266E0,2.6935183E1,8.041916E0,0E0,0E0,0E0,0E0,0E0,0E0,0E0,0E0,0E0,0E0,0E0,0E0,0E0],"parents":[2147483647,0,0,1,1,2,2,3,3,4,4,5,5,6,6,7,7,8,8,9,9,10,10,11,11],"right_children":[2,4,6,8,10,12,14,16,18,20,22,24,-1,-1,-1,-1,-1,-1,-1,-1,-1,-1,-1,-1,-1],"split_conditions":[7.889196E-1,7.1248376E-1,8.404617E-1,6.921961E-1,7.72671E-1,8.087937E-1,8.7526876E-1,1.3805714E2,1.3750961E2,7.65714E-1,7.7614236E-1,1.3693344E2,3.2089356E-1,5.798952E-1,9.759931E-1,-8.1476206E-1,-2.0016098E-1,-1.273983E-1,-5.059941E-1,-1.240626E-1,7.466507E-3,1.02722935E-1,-4.537201E-2,1.7800383E-1,3.753306E-2],"split_indices":[0,0,1,1,0,0,1,3,3,1,0,3,0,0,0,0,0,0,0,0,0,0,0,0,0],"split_type":[0,0,0,0,0,0,0,0,0,0,0,0,0,0,0,0,0,0,0,0,0,0,0,0,0],"sum_hessian":[8.3E1,4.9E1,3.4E1,3.2E1,1.7E1,1.1E1,2.3E1,1.2E1,2E1,6E0,1.1E1,7E0,4E0,1.4E1,9E0,1.1E1,1E0,1E0,1.9E1,5E0,1E0,4E0,7E0,5E0,2E0],"tree_param":{"num_deleted":"0","num_feature":"5","num_nodes":"25","size_leaf_vector":"1"}},{"base_weights":[4.1085318E-1,-8.651294E0,1.075781E1,-1.2078714E1,-1.0415325E0,2.4651628E0,1.3272226E1,-7.927862E-1,-9.469495E0,-1.7841061E0,4.9344125E-1,1.8325438E-1,8.5437775E-1,1.0851117E1,8.756777E-1,-1.2421341E-1,-4.8419133E-1,-4.5038607E-2,-1.3319764E-1,-5.6744386E-2,7.956638E-2,-4.866867E-2,7.0730135E-2,5.917915E-1,3.044229E-1],"categories":[],"categories_nodes":[],"categories_segments":[],"categories_sizes":[],"default_left":[0,0,0,0,0,0,0,0,0,0,0,0,0,0,0,0,0,0,0,0,0,0,0,0,0],"id":14,"left_children":[1,3,5,7,9,11,13,-1,15,17,19,-1,21,23,-1,-1,-1,-1,-1,-1,-1,-1,-1,-1,-1],"loss_changes":[8.438211E3,1.2393484E3,8.430303E2,1.750708E2,1.911765E1,1.8129662E1,1.3855762E2,0E0,8.880127E0,6.1495705E0,1.25323E1,0E0,7.5206466E0,3.5804443E1,0E0,0E0,0E0,0E0,0E0,0E0,0E0,0E0,0E0,0E0,0E0],"parents":[2147483647,0,0,1,1,2,2,3,3,4,4,5,5,6,6,8,8,9,9,10,10,12,12,13,13],"right_children":[2,4,6,8,10,12,14,-1,16,18,20,-1,22,24,-1,-1,-1,-1,-1,-1,-1,-1,-1,-1,-1],"split_conditions":[7.767923E-1,7.311525E-1,8.0183965E-1,6.921961E-1,1.3725006E2,1.3675284E2,8.7526876E-1,-7.927862E-1,1.3750961E2,1.5789156E2,7.6509684E-1,1.8325438E-1,1.490458E2,1.372818E2,8.756777E-1,-1.2421341E-1,-4.8419133E-1,-4.5038607E-2,-1.3319764E-1,-5.6744386E-2,7.956638E-2,-4.866867E-2,7.0730135E-2,5.917915E-1,3.044229E-1],"split_indices":[1,1,1,1,3,3,1,0,3,2,1,0,2,3,0,0,0,0,0,0,0,0,0,0,0],"split_type":[0,0,0,0,0,0,0,0,0,0,0,0,0,0,0,0,0,0,0,0,0,0,0,0,0],"sum_hessian":[8.8E1,4.7E1,4.1E1,3.2E1,1.5E1,1E1,3.1E1,1.1E1,2.1E1,1E1,5E0,5E0,5E0,2.2E1,9E0,1E0,2E1,6E0,4E0,2E0,3E0,1E0,4E0,1.7E1,5E0],"tree_param":{"num_deleted":"0","num_feature":"5","num_nodes":"25","size_leaf_vector":"1"}},{"base_weights":[-5.959433E-1,-1.143686E1,6.6430197E0,-7.278186E-1,-9.073655E0,9.555963E-1,1.2074943E1,-1.2110825E-1,-4.6375257E-1,-5.8091843E-1,2.536797E0,9.799507E0,9.013238E-1,2.160782E-2,-5.14682E-2,1.645579E-1,3.3579405E-2,5.3369075E-1,2.917384E-1],"categories":[],"categories_nodes":[],"categories_segments":[],"categories_sizes":[],"default_left":[0,0,0,0,0,0,0,0,0,0,0,0,0,0,0,0,0,0,0],"id":15,"left_children":[1,3,5,-1,7,9,11,-1,-1,13,15,17,-1,-1,-1,-1,-1,-1,-1],"loss_changes":[6.668043E3,1.18569824E2,1.5640371E3,0E0,7.005005E0,6.464166E1,1.7544995E2,0E0,0E0,6.8051715E0,1.608123E1,1.0515259E1,0E0,0E0,0E0,0E0,0E0,0E0,0E0],"parents":[2147483647,0,0,1,1,2,2,4,4,5,5,6,6,9,9,10,10,11,11],"right_children":[2,4,6,-1,8,10,12,-1,-1,14,16,18,-1,-1,-1,-1,-1,-1,-1],"split_conditions":[7.311525E-1,1.2843161E2,8.170268E-1,-7.278186E-1,1.3750961E2,7.767923E-1,8.9193636E-1,-1.2110825E-1,-4.6375257E-1,1.5583562E2,1.3693344E2,1.37242E2,9.013238E-1,2.160782E-2,-5.14682E-2,1.645579E-1,3.3579405E-2,5.3369075E-1,2.917384E-1],"split_indices":[1,2,1,0,3,1,1,0,0,2,3,3,0,0,0,0,0,0,0],"split_type":[0,0,0,0,0,0,0,0,0,0,0,0,0,0,0,0,0,0,0],"sum_hessian":[8.3E1,3.3E1,5E1,1.2E1,2.1E1,2.5E1,2.5E1,1E0,2E1,1.3E1,1.2E1,2E1,5E0,4E0,9E0,8E0,4E0,1.5E1,5E0],"tree_param":{"num_deleted":"0","num_feature":"5","num_nodes":"19","size_leaf_vector":"1"}},{"base_weights":[-5.798183E-1,-8.020048E0,1.0366138E1,-1.0636826E1,-1.0921576E0,5.220007E0,6.2340087E-1,-7.1656877E-1,-8.733532E0,-1.7561493E0,-5.281457E-1,2.3740172E0,3.2535705E-1,-1.1808052E-1,-4.450314E-1,-2.5912857E-2,-9.500381E-2,1.2183228E-2,-5.971634E-2,1.3125668E-1,3.4238815E-2],"categories":[],"categories_nodes":[],"categories_segments":[],"categories_sizes":[],"default_left":[0,0,0,0,0,0,0,0,0,0,0,0,0,0,0,0,0,0,0,0,0],"id":16,"left_children":[1,3,5,7,9,11,-1,-1,13,15,17,19,-1,-1,-1,-1,-1,-1,-1,-1,-1],"loss_changes":[6.4354907E3,8.404341E2,2.8104614E2,1.1391797E2,4.315487E0,2.4846771E1,0E0,0E0,5.5983887E0,8.426857E-2,4.9185038E0,3.233509E-1,0E0,0E0,0E0,0E0,0E0,0E0,0E0,0E0,0E0],"parents":[2147483647,0,0,1,1,2,2,3,3,4,4,5,5,8,8,9,9,10,10,11,11],"right_children":[2,4,6,8,10,12,-1,-1,14,16,18,20,-1,-1,-1,-1,-1,-1,-1,-1,-1],"split_conditions":[7.8748935E-1,7.2126025E-1,8.404617E-1,6.754579E-1,7.640359E-1,8.0998266E-1,6.2340087E-1,-7.1656877E-1,1.3750961E2,7.564953E-1,7.752669E-1,8.087937E-1,3.2535705E-1,-1.1808052E-1,-4.450314E-1,-2.5912857E-2,-9.500381E-2,1.2183228E-2,-5.971634E-2,1.3125668E-1,3.4238815E-2],"split_indices":[0,0,1,0,0,0,0,0,3,0,0,0,0,0,0,0,0,0,0,0,0],"split_type":[0,0,0,0,0,0,0,0,0,0,0,0,0,0,0,0,0,0,0,0,0],"sum_hessian":[7.7E1,4.6E1,3.1E1,3.3E1,1.3E1,1E1,2.1E1,9E0,2.4E1,5E0,8E0,4E0,6E0,1E0,2.3E1,1E0,4E0,4E0,4E0,3E0,1E0],"tree_param":{"num_deleted":"0","num_feature":"5","num_nodes":"21","size_leaf_vector":"1"}},{"base_weights":[4.2139377E-2,-6.637016E0,1.1244524E1,-1.0599284E1,-2.832249E-1,8.846688E0,8.5162324E-1,-7.057577E-1,-8.609807E0,1.3754749E0,-1.210823E0,1.1259919E-1,9.681552E0,-1.1512833E-1,-4.3959188E-1,2.115593E-2,1.410848E-1,-9.528313E-2,-1.2187304E-2,5.134015E-1,2.3110066E-1],"categories":[],"categories_nodes":[],"categories_segments":[],"categories_sizes":[],"default_left":[0,0,0,0,0,0,0,0,0,0,0,0,0,0,0,0,0,0,0,0,0],"id":17,"left_children":[1,3,5,7,9,11,-1,-1,13,15,17,-1,19,-1,-1,-1,-1,-1,-1,-1,-1],"loss_changes":[6.2100723E3,1.3061201E3,2.7955347E2,1.0230298E2,3.39762E1,1.1033374E2,0E0,0E0,6.162842E0,9.824631E0,8.942987E0,0E0,1.485437E1,0E0,0E0,0E0,0E0,0E0,0E0,0E0,0E0],"parents":[2147483647,0,0,1,1,2,2,3,3,4,4,5,5,8,8,9,9,10,10,12,12],"right_children":[2,4,6,8,10,12,-1,-1,14,16,18,-1,20,-1,-1,-1,-1,-1,-1,-1,-1],"split_conditions":[7.984295E-1,7.311525E-1,8.9193636E-1,6.759285E-1,1.5583562E2,8.170268E-1,8.5162324E-1,-7.057577E-1,1.3750961E2,1.3719826E2,7.65714E-1,1.1259919E-1,1.372818E2,-1.1512833E-1,-4.3959188E-1,2.115593E-2,1.410848E-1,-9.528313E-2,-1.2187304E-2,5.134015E-1,2.3110066E-1],"split_indices":[1,1,1,1,2,1,0,0,3,3,1,0,3,0,0,0,0,0,0,0,0],"split_type":[0,0,0,0,0,0,0,0,0,0,0,0,0,0,0,0,0,0,0,0,0],"sum_hessian":[8.1E1,5.1E1,3E1,3.1E1,2E1,2.3E1,7E0,9E0,2.2E1,7E0,1.3E1,3E0,2E1,1E0,2.1E1,5E0,2E0,7E0,6E0,1.7E1,3E0],"tree_param":{"num_deleted":"0","num_feature":"5","num_nodes":"21","size_leaf_vector":"1"}},{"base_weights":[3.4205016E-1,-6.4099874E0,9.206384E0,-9.906679E0,-4.2031777E-1,3.3066406E0,1.1772656E1,-1.1130961E1,-3.2337233E-1,-9.1426206E-1,7.199478E-1,2.1744804E0,2.2283845E-1,8.794086E0,7.5316226E-1,-6.370136E-1,-3.8742203E-1,-7.2543435E-2,-2.3204803E-3,-3.0115763E-2,7.658291E-2,1.3110746E-1,2.7715812E-2,4.5915443E-1,8.370171E-2],"categories":[],"categories_nodes":[],"categories_segments":[],"categories_sizes":[],"default_left":[0,0,0,0,0,0,0,0,0,0,0,0,0,0,0,0,0,0,0,0,0,0,0,0,0],"id":18,"left_children":[1,3,5,7,9,11,13,15,-1,17,19,21,-1,23,-1,-1,-1,-1,-1,-1,-1,-1,-1,-1,-1],"loss_changes":[4.8471978E3,9.592615E2,4.9098413E2,5.011841E1,1.079632E1,5.9344025E0,1.0276245E2,1.015332E1,0E0,5.986704E0,7.3623095E0,4.348877E0,0E0,2.617273E1,0E0,0E0,0E0,0E0,0E0,0E0,0E0,0E0,0E0,0E0,0E0],"parents":[2147483647,0,0,1,1,2,2,3,3,4,4,5,5,6,6,7,7,9,9,10,10,11,11,13,13],"right_children":[2,4,6,8,10,12,14,16,-1,18,20,22,-1,24,-1,-1,-1,-1,-1,-1,-1,-1,-1,-1,-1],"split_conditions":[7.907819E-1,7.311525E-1,8.404617E-1,7.044736E-1,1.3725006E2,7.873392E-1,8.7526876E-1,1.3814908E2,-3.2337233E-1,7.6461095E-1,7.650295E-1,1.3693344E2,2.2283845E-1,1.371865E2,7.5316226E-1,-6.370136E-1,-3.8742203E-1,-7.2543435E-2,-2.3204803E-3,-3.0115763E-2,7.658291E-2,1.3110746E-1,2.7715812E-2,4.5915443E-1,8.370171E-2],"split_indices":[1,1,1,1,3,4,1,3,0,4,1,3,0,3,0,0,0,0,0,0,0,0,0,0,0],"split_type":[0,0,0,0,0,0,0,0,0,0,0,0,0,0,0,0,0,0,0,0,0,0,0,0,0],"sum_hessian":[7.9E1,4.5E1,3.4E1,2.8E1,1.7E1,1.1E1,2.3E1,1.9E1,9E0,1.2E1,5E0,7E0,4E0,1.4E1,9E0,1.1E1,8E0,7E0,5E0,2E0,3E0,5E0,2E0,1.3E1,1E0],"tree_param":{"num_deleted":"0","num_feature":"5","num_nodes":"25","size_leaf_vector":"1"}},{"base_weights":[-1.6733348E-1,-5.9928846E0,9.547496E0,-9.464684E0,-3.119522E-1,4.4670825E0,5.9321743E-1,-6.461989E-1,-3.7310317E-1,1.9925575E0,-8.358397E-1,2.2498906E0,2.9698804E-1,1.1334228E-2,1.2528102E-1,-8.693248E-2,-9.26694E-3,1.2316284E-1,2.9576493E-2],"categories":[],"categories_nodes":[],"categories_segments":[],"categories_sizes":[],"default_left":[0,0,0,0,0,0,0,0,0,0,0,0,0,0,0,0,0,0,0],"id":19,"left_children":[1,3,5,7,9,11,-1,-1,-1,13,15,17,-1,-1,-1,-1,-1,-1,-1],"loss_changes":[4.5281616E3,9.832001E2,3.0011816E2,1.1831787E2,2.5811533E1,2.2553497E1,0E0,0E0,0E0,3.0560303E0,9.661499E0,6.6593933E-1,0E0,0E0,0E0,0E0,0E0,0E0,0E0],"parents":[2147483647,0,0,1,1,2,2,3,3,4,4,5,5,9,9,10,10,11,11],"right_children":[2,4,6,8,10,12,-1,-1,-1,14,16,18,-1,-1,-1,-1,-1,-1,-1],"split_conditions":[7.976889E-1,7.2126025E-1,8.404617E-1,6.754579E-1,1.4771031E2,8.0998266E-1,5.9321743E-1,-6.461989E-1,-3.7310317E-1,7.7480155E-1,7.65714E-1,8.087937E-1,2.9698804E-1,1.1334228E-2,1.2528102E-1,-8.693248E-2,-9.26694E-3,1.2316284E-1,2.9576493E-2],"split_indices":[1,0,1,0,2,0,0,0,0,0,1,0,0,0,0,0,0,0,0],"split_type":[0,0,0,0,0,0,0,0,0,0,0,0,0,0,0,0,0,0,0],"sum_hessian":[7.8E1,4.9E1,2.9E1,3E1,1.9E1,1E1,1.9E1,9E0,2.1E1,3E0,1.6E1,5E0,5E0,1E0,2E0,6E0,1E1,4E0,1E0],"tree_param":{"num_deleted":"0","num_feature":"5","num_nodes":"19","size_leaf_vector":"1"}},{"base_weights":[-6.962821E-1,-6.9588776E0,7.616244E0,-9.279112E0,-1.081072E0,1.9480466E0,9.643426E0,-6.131247E-1,-7.400791E0,-1.8389757E0,4.7814507E-2,1.3350384E-1,5.475952E-1,7.97015E0,6.6428113E-1,-9.4837956E-2,-3.7788147E-1,-1.1273161E-1,-1.2805939E-2,-3.361575E-2,1.0921478E-1,-3.9445497E-2,8.507843E-2,4.3820587E-1,1.8383163E-1],"categories":[],"categories_nodes":[],"categories_segments":[],"categories_sizes":[],"default_left":[0,0,0,0,0,0,0,0,0,0,0,0,0,0,0,0,0,0,0,0,0,0,0,0,0],"id":20,"left_children":[1,3,5,7,9,11,13,-1,15,17,19,-1,21,23,-1,-1,-1,-1,-1,-1,-1,-1,-1,-1,-1],"loss_changes":[4.4779297E3,6.5822485E2,4.0636133E2,1.0537915E2,1.2921736E1,9.660725E0,5.8660645E1,0E0,6.3828125E0,5.3438663E0,1.2238337E1,0E0,9.053842E0,3.9364624E1,0E0,0E0,0E0,0E0,0E0,0E0,0E0,0E0,0E0,0E0,0E0],"parents":[2147483647,0,0,1,1,2,2,3,3,4,4,5,5,6,6,8,8,9,9,10,10,12,12,13,13],"right_children":[2,4,6,8,10,12,14,-1,16,18,20,-1,22,24,-1,-1,-1,-1,-1,-1,-1,-1,-1,-1,-1],"split_conditions":[7.767923E-1,7.2126025E-1,8.213558E-1,6.754579E-1,1.3722182E2,1.3693344E2,8.7526876E-1,-6.131247E-1,1.3750961E2,7.6461095E-1,7.7227294E-1,1.3350384E-1,1.3711115E2,1.372818E2,6.6428113E-1,-9.4837956E-2,-3.7788147E-1,-1.1273161E-1,-1.2805939E-2,-3.361575E-2,1.0921478E-1,-3.9445497E-2,8.507843E-2,4.3820587E-1,1.8383163E-1],"split_indices":[1,0,0,0,3,3,1,0,3,4,0,0,3,3,0,0,0,0,0,0,0,0,0,0,0],"split_type":[0,0,0,0,0,0,0,0,0,0,0,0,0,0,0,0,0,0,0,0,0,0,0,0,0],"sum_hessian":[8.4E1,4.8E1,3.6E1,3.4E1,1.4E1,1E1,2.6E1,1.1E1,2.3E1,8E0,6E0,6E0,4E0,2E1,6E0,1E0,2.2E1,6E0,2E0,5E0,1E0,2E0,2E0,1.6E1,4E0],"tree_param":{"num_deleted":"0","num_feature":"5","num_nodes":"25","size_leaf_vector":"1"}},{"base_weights":[-5.176504E-1,-7.09198E0,6.2339787E0,-9.581231E0,-3.37898E0,1.1657171E0,9.228307E0,-5.919089E-1,-3.5617715E-1,-2.5491765E-1,-1.4936463E0,2.3353815E0,-2.9586983E-1,3.7026224E-1,5.823251E-1,-1.1410198E-1,-4.1487884E-2,2.2347642E-2,1.6025518E-1,-4.0908944E-2,4.2368572E-2],"categories":[],"categories_nodes":[],"categories_segments":[],"categories_sizes":[],"default_left":[0,0,0,0,0,0,0,0,0,0,0,0,0,0,0,0,0,0,0,0,0],"id":21,"left_children":[1,3,5,7,9,11,13,-1,-1,-1,15,17,19,-1,-1,-1,-1,-1,-1,-1,-1],"loss_changes":[3.595206E3,3.465713E2,5.9628406E2,4.8795166E1,5.073352E1,2.8044027E1,2.3967773E1,0E0,0E0,0E0,3.3405132E0,1.3349148E1,5.4703026E0,0E0,0E0,0E0,0E0,0E0,0E0,0E0,0E0],"parents":[2147483647,0,0,1,1,2,2,3,3,4,4,5,5,6,6,10,10,11,11,12,12],"right_children":[2,4,6,8,10,12,14,-1,-1,-1,16,18,20,-1,-1,-1,-1,-1,-1,-1,-1],"split_conditions":[7.72671E-1,7.0603573E-1,8.213558E-1,1.3805714E2,7.2126025E-1,1.5583562E2,8.312331E-1,-5.919089E-1,-3.5617715E-1,-2.5491765E-1,1.371934E2,1.5060628E2,1.5805444E2,3.7026224E-1,5.823251E-1,-1.1410198E-1,-4.1487884E-2,2.2347642E-2,1.6025518E-1,-4.0908944E-2,4.2368572E-2],"split_indices":[0,4,0,3,0,2,4,0,0,0,3,2,2,0,0,0,0,0,0,0,0],"split_type":[0,0,0,0,0,0,0,0,0,0,0,0,0,0,0,0,0,0,0,0,0],"sum_hessian":[7.9E1,4E1,3.9E1,2.3E1,1.7E1,1.5E1,2.4E1,1E1,1.3E1,8E0,9E0,8E0,7E0,1.6E1,8E0,3E0,6E0,3E0,5E0,5E0,2E0],"tree_param":{"num_deleted":"0","num_feature":"5","num_nodes":"21","size_leaf_vector":"1"}},{"base_weights":[-1.289616E-1,-7.421268E0,5.342955E0,-9.516472E0,-3.4490564E0,1.3466277E0,1.0004677E1,-5.83018E-1,-3.4851885E-1,-2.2692452E-1,-1.7112666E0,5.216166E-2,2.7366557E0,3.8258728E-1,6.9767827E-1,-1.0982304E-1,-3.9912798E-2,7.719243E-2,-1.4804313E-2,9.626686E-2,1.824849E-1],"categories":[],"categories_nodes":[],"categories_segments":[],"categories_sizes":[],"default_left":[0,0,0,0,0,0,0,0,0,0,0,0,0,0,0,0,0,0,0,0,0],"id":22,"left_children":[1,3,5,7,9,11,13,-1,-1,-1,15,17,19,-1,-1,-1,-1,-1,-1,-1,-1],"loss_changes":[3.3515916E3,2.6679065E2,8.807562E2,4.426953E1,1.8738342E1,4.8439533E1,9.764307E1,0E0,0E0,0E0,1.3475723E0,8.249265E0,2.6030884E0,0E0,0E0,0E0,0E0,0E0,0E0,0E0,0E0],"parents":[2147483647,0,0,1,1,2,2,3,3,4,4,5,5,6,6,10,10,11,11,12,12],"right_children":[2,4,6,8,10,12,14,-1,-1,-1,16,18,20,-1,-1,-1,-1,-1,-1,-1,-1],"split_conditions":[7.556017E-1,7.0603573E-1,8.404617E-1,1.3803563E2,7.144905E-1,7.907819E-1,8.9193636E-1,-5.83018E-1,-3.4851885E-1,-2.2692452E-1,1.371934E2,7.569481E-1,7.873392E-1,3.8258728E-1,6.9767827E-1,-1.0982304E-1,-3.9912798E-2,7.719243E-2,-1.4804313E-2,9.626686E-2,1.824849E-1],"split_indices":[4,4,1,3,1,1,1,0,0,0,3,4,4,0,0,0,0,0,0,0,0],"split_type":[0,0,0,0,0,0,0,0,0,0,0,0,0,0,0,0,0,0,0,0,0],"sum_hessian":[8.2E1,3.5E1,4.7E1,2.2E1,1.3E1,2.6E1,2.1E1,1E1,1.2E1,7E0,6E0,1.4E1,1.2E1,1.5E1,6E0,3E0,3E0,2E0,1.2E1,8E0,4E0],"tree_param":{"num_deleted":"0","num_feature":"5","num_nodes":"21","size_leaf_vector":"1"}},{"base_weights":[-5.461417E-1,-7.910422E0,4.3740873E0,-5.4142535E-1,-6.596069E0,5.641163E-1,8.313892E0,-8.042107E-2,-6.731238E0,1.8973083E0,-6.2892455E-1,6.359064E0,6.216077E-1,-9.555016E-2,-3.426228E-1,4.02874E-2,1.2394076E-1,-4.0493425E-2,1.8240357E-2,3.487395E-1,1.931263E-1],"categories":[],"categories_nodes":[],"categories_segments":[],"categories_sizes":[],"default_left":[0,0,0,0,0,0,0,0,0,0,0,0,0,0,0,0,0,0,0,0,0],"id":23,"left_children":[1,3,5,-1,7,9,11,-1,13,15,17,19,-1,-1,-1,-1,-1,-1,-1,-1,-1],"loss_changes":[3.078252E3,5.8977783E1,7.608478E2,0E0,6.7019043E0,4.4138184E1,1.22205444E2,0E0,1.5124512E0,6.254444E0,2.992591E0,2.2662354E0,0E0,0E0,0E0,0E0,0E0,0E0,0E0,0E0,0E0],"parents":[2147483647,0,0,1,1,2,2,4,4,5,5,6,6,8,8,9,9,10,10,11,11],"right_children":[2,4,6,-1,8,10,12,-1,14,16,18,20,-1,-1,-1,-1,-1,-1,-1,-1,-1],"split_conditions":[7.311525E-1,6.759285E-1,8.170268E-1,-5.4142535E-1,1.3750961E2,1.5583562E2,8.821568E-1,-8.042107E-2,6.8244135E-1,1.5060628E2,7.790632E-1,1.37242E2,6.216077E-1,-9.555016E-2,-3.426228E-1,4.02874E-2,1.2394076E-1,-4.0493425E-2,1.8240357E-2,3.487395E-1,1.931263E-1],"split_indices":[1,1,1,0,3,2,1,0,1,2,1,3,0,0,0,0,0,0,0,0,0],"split_type":[0,0,0,0,0,0,0,0,0,0,0,0,0,0,0,0,0,0,0,0,0],"sum_hessian":[8.3E1,3.3E1,5E1,8E0,2.5E1,2.6E1,2.4E1,1E0,2.4E1,1.2E1,1.4E1,1.8E1,6E0,1E0,2.3E1,5E0,7E0,1.2E1,2E0,1.3E1,5E0],"tree_param":{"num_deleted":"0","num_feature":"5","num_nodes":"21","size_leaf_vector":"1"}},{"base_weights":[4.1355932E-1,-5.4574924E0,7.026706E0,-7.5332108E0,-9.4222313E-1,4.9839272E0,6.226186E-1,-4.857331E-1,-5.7589674E0,-1.01201415E-1,3.8723415E-3,1.6965942E0,6.542764E0,-1.1242447E-1,-3.0198503E-1,-3.6622293E-2,8.603287E-2,1.3085379E-1,2.4667358E-2,3.621526E-1,1.850792E-1],"categories":[],"categories_nodes":[],"categories_segments":[],"categories_sizes":[],"default_left":[0,0,0,0,0,0,0,0,0,0,0,0,0,0,0,0,0,0,0,0,0],"id":24,"left_children":[1,3,5,7,9,11,-1,-1,13,-1,15,17,19,-1,-1,-1,-1,-1,-1,-1,-1],"loss_changes":[3.2220906E3,4.0528882E2,3.7019214E2,6.016638E1,1.5360202E1,1.4263208E2,0E0,0E0,5.14447E0,0E0,1.2637189E1,1.0892107E1,1.2982117E1,0E0,0E0,0E0,0E0,0E0,0E0,0E0,0E0],"parents":[2147483647,0,0,1,1,2,2,3,3,4,4,5,5,8,8,10,10,11,11,12,12],"right_children":[2,4,6,8,10,12,-1,-1,14,-1,16,18,20,-1,-1,-1,-1,-1,-1,-1,-1],"split_conditions":[7.767923E-1,7.2126025E-1,8.7526876E-1,6.939459E-1,1.3722182E2,8.213558E-1,6.226186E-1,-4.857331E-1,1.3770023E2,-1.01201415E-1,7.7227294E-1,1.3675284E2,1.372818E2,-1.1242447E-1,-3.0198503E-1,-3.6622293E-2,8.603287E-2,1.3085379E-1,2.4667358E-2,3.621526E-1,1.850792E-1],"split_indices":[1,0,1,0,3,0,0,0,3,0,0,3,3,0,0,0,0,0,0,0,0],"split_type":[0,0,0,0,0,0,0,0,0,0,0,0,0,0,0,0,0,0,0,0,0],"sum_hessian":[8.1E1,4.3E1,3.8E1,2.9E1,1.4E1,2.9E1,9E0,1.1E1,1.8E1,6E0,8E0,1E1,1.9E1,2E0,1.6E1,6E0,2E0,5E0,5E0,1.4E1,5E0],"tree_param":{"num_deleted":"0","num_feature":"5","num_nodes":"21","size_leaf_vector":"1"}},{"base_weights":[-5.950574E-1,-5.796767E0,5.8880157E0,-8.355516E0,-2.6256082E0,1.8016067E0,7.3347745E0,-5.033864E-1,-3.145542E-1,-2.1193023E-1,-1.1828719E0,1.203888E-1,1.3886642E-1,2.836301E-1,9.593206E0,-8.895709E-2,-2.9390527E-2,3.0514527E-2,-1.1085256E-2,2.5187206E-1,5.4130214E-1],"categories":[],"categories_nodes":[],"categories_segments":[],"categories_sizes":[],"default_left":[0,0,0,0,0,0,0,0,0,0,0,0,0,0,0,0,0,0,0,0,0],"id":25,"left_children":[1,3,5,7,9,11,13,-1,-1,-1,15,-1,17,-1,19,-1,-1,-1,-1,-1,-1],"loss_changes":[2.7994229E3,3.5131494E2,2.0553137E2,2.5031616E1,4.6183105E1,1.0752567E1,4.693701E1,0E0,0E0,0E0,3.566824E0,0E0,8.15233E-1,0E0,1.6295166E0,0E0,0E0,0E0,0E0,0E0,0E0],"parents":[2147483647,0,0,1,1,2,2,3,3,4,4,5,5,6,6,10,10,12,12,14,14],"right_children":[2,4,6,8,10,12,14,-1,-1,-1,16,-1,18,-1,20,-1,-1,-1,-1,-1,-1],"split_conditions":[7.767923E-1,7.0603573E-1,8.213558E-1,6.921961E-1,7.2126025E-1,1.5338686E2,8.6548424E-1,-5.033864E-1,-3.145542E-1,-2.1193023E-1,7.65714E-1,1.203888E-1,7.863607E-1,2.836301E-1,1.4362082E2,-8.895709E-2,-2.9390527E-2,3.0514527E-2,-1.1085256E-2,2.5187206E-1,5.4130214E-1],"split_indices":[1,4,0,1,0,2,1,0,0,0,1,0,0,0,2,0,0,0,0,0,0],"split_type":[0,0,0,0,0,0,0,0,0,0,0,0,0,0,0,0,0,0,0,0,0],"sum_hessian":[8.1E1,4.5E1,3.6E1,2.4E1,2.1E1,1E1,2.6E1,1.1E1,1.3E1,9E0,1.2E1,7E0,3E0,1.7E1,9E0,5E0,7E0,1E0,2E0,3E0,6E0],"tree_param":{"num_deleted":"0","num_feature":"5","num_nodes":"21","size_leaf_vector":"1"}},{"base_weights":[-5.025234E-2,-4.181907E0,6.975236E0,-6.4176536E0,-3.9561766E-1,5.5212336E0,5.141794E-1,-4.1594774E-1,-5.0255933E0,-9.3083733E-1,7.313385E-1,8.78294E-2,5.998101E0,-6.843338E-2,-2.570003E-1,-7.188034E-2,-1.0934776E-2,6.770386E-2,-2.7516937E-2,3.221014E-1,1.6889572E-1],"categories":[],"categories_nodes":[],"categories_segments":[],"categories_sizes":[],"default_left":[0,0,0,0,0,0,0,0,0,0,0,0,0,0,0,0,0,0,0,0,0],"id":26,"left_children":[1,3,5,7,9,11,-1,-1,13,15,17,-1,19,-1,-1,-1,-1,-1,-1,-1,-1],"loss_changes":[2.3513213E3,4.2918536E2,8.753235E1,4.2887573E1,1.274414E1,3.0754272E1,0E0,0E0,1.7514648E0,4.7380867E0,6.3322506E0,0E0,1.5028076E0,0E0,0E0,0E0,0E0,0E0,0E0,0E0,0E0],"parents":[2147483647,0,0,1,1,2,2,3,3,4,4,5,5,8,8,9,9,10,10,12,12],"right_children":[2,4,6,8,10,12,-1,-1,14,16,18,-1,20,-1,-1,-1,-1,-1,-1,-1,-1],"split_conditions":[7.984295E-1,7.2126025E-1,8.7526876E-1,1.3793239E2,7.767923E-1,8.213558E-1,5.141794E-1,-4.1594774E-1,6.8783E-1,1.3722182E2,8.009539E-1,8.78294E-2,1.372818E2,-6.843338E-2,-2.570003E-1,-7.188034E-2,-1.0934776E-2,6.770386E-2,-2.7516937E-2,3.221014E-1,1.6889572E-1],"split_indices":[1,0,1,3,1,0,0,0,0,3,0,0,3,0,0,0,0,0,0,0,0],"split_type":[0,0,0,0,0,0,0,0,0,0,0,0,0,0,0,0,0,0,0,0,0],"sum_hessian":[7.9E1,5E1,2.9E1,3.1E1,1.9E1,2.2E1,7E0,1.1E1,2E1,1.3E1,6E0,3E0,1.9E1,1E0,1.9E1,7E0,6E0,4E0,2E0,1.5E1,4E0],"tree_param":{"num_deleted":"0","num_feature":"5","num_nodes":"21","size_leaf_vector":"1"}},{"base_weights":[1.7814709E-1,-4.1636915E0,6.375684E0,-6.4895825E0,-3.5037535E-1,2.4205744E0,8.333977E0,-4.4512445E-1,-5.414881E0,-1.2704247E0,3.6885962E-1,1.7367737E-1,1.5666368E0,3.009731E-1,5.37045E-1,-5.9902955E-2,-2.7730662E-1,1.0078812E-2,-7.39811E-2,8.2116395E-2,-2.3658276E-2,-5.8488082E-2,1.0274535E-1],"categories":[],"categories_nodes":[],"categories_segments":[],"categories_sizes":[],"default_left":[0,0,0,0,0,0,0,0,0,0,0,0,0,0,0,0,0,0,0,0,0,0,0],"id":27,"left_children":[1,3,5,7,9,11,13,-1,15,17,19,-1,21,-1,-1,-1,-1,-1,-1,-1,-1,-1,-1],"loss_changes":[2.2868774E3,4.4119403E2,2.5091113E2,3.2181885E1,1.3703243E1,6.247467E0,6.347534E1,0E0,6.6384277E0,3.069703E0,1.36446E1,0E0,1.4428659E1,0E0,0E0,0E0,0E0,0E0,0E0,0E0,0E0,0E0,0E0],"parents":[2147483647,0,0,1,1,2,2,3,3,4,4,5,5,6,6,8,8,9,9,10,10,12,12],"right_children":[2,4,6,8,10,12,14,-1,16,18,20,-1,22,-1,-1,-1,-1,-1,-1,-1,-1,-1,-1],"split_conditions":[7.889196E-1,7.2126025E-1,8.4802663E-1,6.6659397E-1,7.72671E-1,1.4771031E2,1.3691388E2,-4.4512445E-1,1.3750961E2,1.5630074E2,7.7614236E-1,1.7367737E-1,1.490458E2,3.009731E-1,5.37045E-1,-5.9902955E-2,-2.7730662E-1,1.0078812E-2,-7.39811E-2,8.2116395E-2,-2.3658276E-2,-5.8488082E-2,1.0274535E-1],"split_indices":[0,0,0,4,0,2,3,0,3,2,0,0,2,0,0,0,0,0,0,0,0,0,0],"split_type":[0,0,0,0,0,0,0,0,0,0,0,0,0,0,0,0,0,0,0,0,0,0,0],"sum_hessian":[8.3E1,4.9E1,3.4E1,3E1,1.9E1,1.2E1,2.2E1,7E0,2.3E1,8E0,1.1E1,4E0,8E0,1.3E1,9E0,1E0,2.2E1,1E0,7E0,4E0,7E0,1E0,7E0],"tree_param":{"num_deleted":"0","num_feature":"5","num_nodes":"23","size_leaf_vector":"1"}},{"base_weights":[3.0564302E-1,-4.953385E0,5.951457E0,-7.4023247E0,-1.4703915E0,4.5652094E0,5.4628986E-1,-4.038857E-1,-4.957409E0,-1.4514259E-1,-5.859598E-1,1.8207092E0,2.759267E-1,-1.15786746E-1,-3.0396333E-1,-3.9564054E-2,3.6916733E-3,1.0816269E-1,1.50177E-2],"categories":[],"categories_nodes":[],"categories_segments":[],"categories_sizes":[],"default_left":[0,0,0,0,0,0,0,0,0,0,0,0,0,0,0,0,0,0,0],"id":28,"left_children":[1,3,5,7,9,11,-1,-1,13,-1,15,17,-1,-1,-1,-1,-1,-1,-1],"loss_changes":[2.4641826E3,3.5589026E2,2.2594812E2,1.2371826E0,2.23704E1,7.629358E1,0E0,0E0,9.630692E0,0E0,1.8195276E0,4.558155E0,0E0,0E0,0E0,0E0,0E0,0E0,0E0],"parents":[2147483647,0,0,1,1,2,2,3,3,4,4,5,5,8,8,10,10,11,11],"right_children":[2,4,6,8,10,12,-1,-1,14,-1,16,18,-1,-1,-1,-1,-1,-1,-1],"split_conditions":[7.767923E-1,7.044736E-1,9.037369E-1,1.6061021E2,7.1248376E-1,8.213558E-1,5.4628986E-1,-4.038857E-1,6.9803154E-1,-1.4514259E-1,1.5853865E2,1.5338686E2,2.759267E-1,-1.15786746E-1,-3.0396333E-1,-3.9564054E-2,3.6916733E-3,1.0816269E-1,1.50177E-2],"split_indices":[1,1,0,2,0,0,0,0,0,0,2,2,0,0,0,0,0,0,0],"split_type":[0,0,0,0,0,0,0,0,0,0,0,0,0,0,0,0,0,0,0],"sum_hessian":[8.1E1,4.2E1,3.9E1,2.4E1,1.8E1,3.2E1,7E0,1.7E1,7E0,6E0,1.2E1,9E0,2.3E1,3E0,4E0,9E0,3E0,7E0,2E0],"tree_param":{"num_deleted":"0","num_feature":"5","num_nodes":"19","size_leaf_vector":"1"}},{"base_weights":[1.4403473E-1,-3.7195807E0,6.579029E0,-6.6889324E0,-8.2675016E-1,4.80255E0,9.695392E0,-4.1329908E-1,-4.634103E0,-2.2109244E0,4.3607426E-1,9.074841E-2,5.159939E0,1.0541E-1,5.1216453E-1,-5.6895066E-2,-2.4077554E-1,-1.406581E-1,-6.034034E-2,-6.0899737E-3,8.438782E-2,2.8085414E-1,1.3325456E-1],"categories":[],"categories_nodes":[],"categories_segments":[],"categories_sizes":[],"default_left":[0,0,0,0,0,0,0,0,0,0,0,0,0,0,0,0,0,0,0,0,0,0,0],"id":29,"left_children":[1,3,5,7,9,11,13,-1,15,17,19,-1,21,-1,-1,-1,-1,-1,-1,-1,-1,-1,-1],"loss_changes":[2.1874949E3,4.6691064E2,1.361305E2,4.918982E1,5.1655228E1,1.5192627E1,2.4132202E1,0E0,3.3997498E0,5.0710983E0,1.1378057E1,0E0,7.840027E0,0E0,0E0,0E0,0E0,0E0,0E0,0E0,0E0,0E0,0E0],"parents":[2147483647,0,0,1,1,2,2,3,3,4,4,5,5,6,6,8,8,9,9,10,10,12,12],"right_children":[2,4,6,8,10,12,14,-1,16,18,20,-1,22,-1,-1,-1,-1,-1,-1,-1,-1,-1,-1],"split_conditions":[7.8401655E-1,7.0603573E-1,8.8980556E-1,1.3814908E2,7.556017E-1,8.213558E-1,1.4362082E2,-4.1329908E-1,6.8783E-1,7.148907E-1,1.3722182E2,9.074841E-2,1.372818E2,1.0541E-1,5.1216453E-1,-5.6895066E-2,-2.4077554E-1,-1.406581E-1,-6.034034E-2,-6.0899737E-3,8.438782E-2,2.8085414E-1,1.3325456E-1],"split_indices":[4,4,0,3,4,0,2,0,0,0,3,0,3,0,0,0,0,0,0,0,0,0,0],"split_type":[0,0,0,0,0,0,0,0,0,0,0,0,0,0,0,0,0,0,0,0,0,0,0],"sum_hessian":[8.6E1,5.4E1,3.2E1,2.6E1,2.8E1,2.2E1,1E1,1.3E1,1.3E1,1.3E1,1.5E1,3E0,1.9E1,1E0,9E0,1E0,1.2E1,7E0,6E0,1.1E1,4E0,1.5E1,4E0],"tree_param":{"num_deleted":"0","num_feature":"5","num_nodes":"23","size_leaf_vector":"1"}},{"base_weights":[3.8211188E-1,-4.0155573E0,5.446548E0,-3.776059E-1,-2.3428264E0,3.6581755E0,8.741896E0,-3.7420816E0,-5.0753176E-1,4.207498E0,1.8275967E0,1.977663E-1,4.8911667E-1,-7.260056E-2,-1.9687949E-1,-1.0814591E-1,-4.32393E-3,2.3044291E-1,1.2514243E-1,2.6227316E-2,1.0872612E-1],"categories":[],"categories_nodes":[],"categories_segments":[],"categories_sizes":[],"default_left":[0,0,0,0,0,0,0,0,0,0,0,0,0,0,0,0,0,0,0,0,0],"id":30,"left_children":[1,3,5,-1,7,9,11,13,15,17,19,-1,-1,-1,-1,-1,-1,-1,-1,-1,-1],"loss_changes":[1.8704233E3,2.4851392E2,1.9785962E2,0E0,8.027823E1,1.946103E1,2.6049377E1,2.3416748E0,1.0268039E1,2.148285E0,2.4758568E0,0E0,0E0,0E0,0E0,0E0,0E0,0E0,0E0,0E0,0E0],"parents":[2147483647,0,0,1,1,2,2,4,4,5,5,6,6,7,7,8,8,9,9,10,10],"right_children":[2,4,6,-1,8,10,12,14,16,18,20,-1,-1,-1,-1,-1,-1,-1,-1,-1,-1],"split_conditions":[7.889196E-1,1.2843161E2,8.35273E-1,-3.776059E-1,7.148907E-1,1.5015019E2,1.4362082E2,1.3770023E2,1.3698482E2,1.37242E2,1.5060628E2,1.977663E-1,4.8911667E-1,-7.260056E-2,-1.9687949E-1,-1.0814591E-1,-4.32393E-3,2.3044291E-1,1.2514243E-1,2.6227316E-2,1.0872612E-1],"split_indices":[0,2,4,0,0,2,2,3,3,3,2,0,0,0,0,0,0,0,0,0,0],"split_type":[0,0,0,0,0,0,0,0,0,0,0,0,0,0,0,0,0,0,0,0,0],"sum_hessian":[8.2E1,4.4E1,3.8E1,1.3E1,3.1E1,2.6E1,1.2E1,1.7E1,1.4E1,1.9E1,7E0,3E0,9E0,2E0,1.5E1,2E0,1.2E1,1.4E1,5E0,2E0,5E0],"tree_param":{"num_deleted":"0","num_feature":"5","num_nodes":"21","size_leaf_vector":"1"}},{"base_weights":[-3.80442E-1,-4.71162E0,4.166041E0,-6.4198246E0,-2.3407829E0,9.375639E-1,5.9249144E0,-3.9620256E-1,-4.421766E0,-3.310286E0,-1.0402511E0,1.7145706E0,-3.063834E-1,4.9121585E0,4.699304E-1,-5.055046E-2,-2.3108724E-1,-7.018051E-2,-1.7890176E-1,-2.7534677E-2,-9.994939E-2,1.1406136E-2,1.1595154E-1,2.3416137E-2,-3.549652E-2,2.7385625E-1,1.1992836E-1],"categories":[],"categories_nodes":[],"categories_segments":[],"categories_sizes":[],"default_left":[0,0,0,0,0,0,0,0,0,0,0,0,0,0,0,0,0,0,0,0,0,0,0,0,0,0,0],"id":31,"left_children":[1,3,5,7,9,11,13,-1,15,17,19,21,23,25,-1,-1,-1,-1,-1,-1,-1,-1,-1,-1,-1,-1,-1],"loss_changes":[1.6934169E3,1.6316718E2,2.3294128E2,4.0100098E1,2.1773872E1,1.5990204E1,4.8818665E1,0E0,4.194397E0,5.934448E-1,3.5927382E0,8.455959E0,2.5208888E0,1.9524902E1,0E0,0E0,0E0,0E0,0E0,0E0,0E0,0E0,0E0,0E0,0E0,0E0,0E0],"parents":[2147483647,0,0,1,1,2,2,3,3,4,4,5,5,6,6,8,8,9,9,10,10,11,11,12,12,13,13],"right_children":[2,4,6,8,10,12,14,-1,16,18,20,22,24,26,-1,-1,-1,-1,-1,-1,-1,-1,-1,-1,-1,-1,-1],"split_conditions":[7.65714E-1,7.044736E-1,8.0183965E-1,1.3814908E2,7.311525E-1,1.5583562E2,8.821568E-1,-3.9620256E-1,6.8244135E-1,1.3770023E2,7.650295E-1,1.5060628E2,7.666943E-1,1.372818E2,4.699304E-1,-5.055046E-2,-2.3108724E-1,-7.018051E-2,-1.7890176E-1,-2.7534677E-2,-9.994939E-2,1.1406136E-2,1.1595154E-1,2.3416137E-2,-3.549652E-2,2.7385625E-1,1.1992836E-1],"split_indices":[1,1,1,3,1,2,1,0,1,3,1,2,1,3,0,0,0,0,0,0,0,0,0,0,0,0,0],"split_type":[0,0,0,0,0,0,0,0,0,0,0,0,0,0,0,0,0,0,0,0,0,0,0,0,0,0,0],"sum_hessian":[8.4E1,4.3E1,4.1E1,2.4E1,1.9E1,1.5E1,2.6E1,1.2E1,1.2E1,1E1,9E0,9E0,6E0,2.2E1,4E0,1E0,1.1E1,2E0,8E0,7E0,2E0,3E0,6E0,2E0,4E0,1.7E1,5E0],"tree_param":{"num_deleted":"0","num_feature":"5","num_nodes":"27","size_leaf_vector":"1"}},{"base_weights":[-6.382439E-2,-4.670287E0,3.9298615E0,-6.1918855E0,-2.3369312E0,1.1680065E0,5.7278385E0,-3.9324427E-1,-4.775293E0,-1.552311E-1,-1.0852013E0,5.326788E-1,9.0736985E-2,4.548104E0,4.549446E-1,-4.5904923E-2,-2.4926142E-1,8.228684E-3,-6.4362556E-2,7.795502E-2,-1.3828823E-2,2.4512815E-1,1.181215E-1],"categories":[],"categories_nodes":[],"categories_segments":[],"categories_sizes":[],"default_left":[0,0,0,0,0,0,0,0,0,0,0,0,0,0,0,0,0,0,0,0,0,0,0],"id":32,"left_children":[1,3,5,7,9,11,13,-1,15,-1,17,19,-1,21,-1,-1,-1,-1,-1,-1,-1,-1,-1],"loss_changes":[1.545285E3,1.2399664E2,2.1676868E2,1.6951965E1,1.2966858E1,6.840185E0,6.5994934E1,0E0,7.569519E0,0E0,2.2319813E0,9.568218E0,0E0,5.462158E0,0E0,0E0,0E0,0E0,0E0,0E0,0E0,0E0,0E0],"parents":[2147483647,0,0,1,1,2,2,3,3,4,4,5,5,6,6,8,8,10,10,11,11,13,13],"right_children":[2,4,6,8,10,12,14,-1,16,-1,18,20,-1,22,-1,-1,-1,-1,-1,-1,-1,-1,-1],"split_conditions":[7.72671E-1,7.022151E-1,8.213558E-1,1.3759523E2,7.2126025E-1,7.889196E-1,9.037369E-1,-3.9324427E-1,1.3771428E2,-1.552311E-1,1.5630074E2,7.7614236E-1,9.0736985E-2,1.372818E2,4.549446E-1,-4.5904923E-2,-2.4926142E-1,8.228684E-3,-6.4362556E-2,7.795502E-2,-1.3828823E-2,2.4512815E-1,1.181215E-1],"split_indices":[0,4,0,3,0,0,0,0,3,0,2,0,0,3,0,0,0,0,0,0,0,0,0],"split_type":[0,0,0,0,0,0,0,0,0,0,0,0,0,0,0,0,0,0,0,0,0,0,0],"sum_hessian":[8.2E1,3.8E1,4.4E1,2.2E1,1.6E1,1.8E1,2.6E1,8E0,1.4E1,9E0,7E0,1E1,8E0,2.1E1,5E0,1E0,1.3E1,1E0,6E0,4E0,6E0,1.7E1,4E0],"tree_param":{"num_deleted":"0","num_feature":"5","num_nodes":"23","size_leaf_vector":"1"}},{"base_weights":[-2.0281911E-1,-2.9543176E0,5.503957E0,-4.97019E0,-9.4558105E-2,4.0805917E0,4.2761478E-1,-4.044523E-1,-2.076762E-1,1.2908808E0,-5.054619E-1,2.2653528E-1,2.2001903E0,8.295937E-2,1.8475598E-2,-6.7621425E-2,2.7314993E-3,1.5373193E-1,1.5043132E-2],"categories":[],"categories_nodes":[],"categories_segments":[],"categories_sizes":[],"default_left":[0,0,0,0,0,0,0,0,0,0,0,0,0,0,0,0,0,0,0],"id":33,"left_children":[1,3,5,7,9,11,-1,-1,-1,13,15,-1,17,-1,-1,-1,-1,-1,-1],"loss_changes":[1.3509462E3,3.3389487E2,8.659076E1,5.3002075E1,1.4884543E1,7.805847E0,0E0,0E0,0E0,1.422987E0,9.561464E0,0E0,9.040138E0,0E0,0E0,0E0,0E0,0E0,0E0],"parents":[2147483647,0,0,1,1,2,2,3,3,4,4,5,5,9,9,10,10,12,12],"right_children":[2,4,6,8,10,12,-1,-1,-1,14,16,-1,18,-1,-1,-1,-1,-1,-1],"split_conditions":[7.873392E-1,7.311525E-1,8.6548424E-1,1.3725647E2,1.3678333E2,1.372818E2,4.2761478E-1,-4.044523E-1,-2.076762E-1,1.3675284E2,1.3703784E2,2.2653528E-1,1.4562491E2,8.295937E-2,1.8475598E-2,-6.7621425E-2,2.7314993E-3,1.5373193E-1,1.5043132E-2],"split_indices":[4,1,1,3,3,3,0,0,0,3,3,0,2,0,0,0,0,0,0],"split_type":[0,0,0,0,0,0,0,0,0,0,0,0,0,0,0,0,0,0,0],"sum_hessian":[8.4E1,5.7E1,2.7E1,3.3E1,2.4E1,2E1,7E0,5E0,2.8E1,5E0,1.9E1,1.5E1,5E0,3E0,2E0,7E0,1.2E1,3E0,2E0],"tree_param":{"num_deleted":"0","num_feature":"5","num_nodes":"19","size_leaf_vector":"1"}},{"base_weights":[5.371934E-1,-2.6629689E0,5.0020723E0,-4.9625797E0,-9.059069E-1,3.8559554E0,4.194111E-1,-3.053913E-1,-3.594659E0,1.4736748E0,-1.2371539E0,4.2668266E0,8.191452E-2,-3.786316E-2,-1.8918811E-1,1.6993714E-2,8.691584E-2,-8.66343E-2,-2.0195562E-2,2.3966241E-1,7.0652924E-2],"categories":[],"categories_nodes":[],"categories_segments":[],"categories_sizes":[],"default_left":[0,0,0,0,0,0,0,0,0,0,0,0,0,0,0,0,0,0,0,0,0],"id":34,"left_children":[1,3,5,7,9,11,-1,-1,13,15,17,19,-1,-1,-1,-1,-1,-1,-1,-1,-1],"loss_changes":[1.1992522E3,1.9349176E2,1.0348773E2,1.0943176E1,2.4681808E1,1.8522583E1,0E0,0E0,3.57341E0,6.09395E-1,1.0035507E1,2.777945E1,0E0,0E0,0E0,0E0,0E0,0E0,0E0,0E0,0E0],"parents":[2147483647,0,0,1,1,2,2,3,3,4,4,5,5,8,8,9,9,10,10,11,11],"right_children":[2,4,6,8,10,12,-1,-1,14,16,18,20,-1,-1,-1,-1,-1,-1,-1,-1,-1],"split_conditions":[7.976889E-1,7.039768E-1,8.9193636E-1,1.3803563E2,1.3678333E2,1.4923888E2,4.194111E-1,-3.053913E-1,6.8244135E-1,7.639762E-1,7.65714E-1,1.372818E2,8.191452E-2,-3.786316E-2,-1.8918811E-1,1.6993714E-2,8.691584E-2,-8.66343E-2,-2.0195562E-2,2.3966241E-1,7.0652924E-2],"split_indices":[1,1,1,3,3,2,0,0,1,1,1,3,0,0,0,0,0,0,0,0,0],"split_type":[0,0,0,0,0,0,0,0,0,0,0,0,0,0,0,0,0,0,0,0,0],"sum_hessian":[8.2E1,4.8E1,3.4E1,2E1,2.8E1,2.7E1,7E0,9E0,1.1E1,3E0,2.5E1,2.2E1,5E0,1E0,1E1,1E0,2E0,1.5E1,1E1,1.8E1,4E0],"tree_param":{"num_deleted":"0","num_feature":"5","num_nodes":"21","size_leaf_vector":"1"}},{"base_weights":[-3.3171855E-2,-3.4939356E0,3.9749012E0,-5.2433248E0,-1.6686965E0,1.4468883E0,4.8260884E0,-3.23608E-1,-3.4261115E0,-9.762726E-1,-1.4224787E-1,1.6812795E0,2.6141867E-1,3.987064E0,3.6190006E-1,-3.6916733E-2,-1.8105279E-1,-6.909519E-2,-1.9895172E-2,9.5790535E-2,2.8680673E-2,3.0204773E-2,-1.0598374E-2,2.2040515E-1,1.02971785E-1],"categories":[],"categories_nodes":[],"categories_segments":[],"categories_sizes":[],"default_left":[0,0,0,0,0,0,0,0,0,0,0,0,0,0,0,0,0,0,0,0,0,0,0,0,0],"id":35,"left_children":[1,3,5,7,9,11,13,-1,15,17,-1,19,21,23,-1,-1,-1,-1,-1,-1,-1,-1,-1,-1,-1],"loss_changes":[1.1374386E3,1.3174487E2,7.478607E1,2.695288E1,1.5955383E1,2.6169834E0,2.7803894E1,0E0,3.090088E0,3.2038088E0,0E0,1.2391052E0,6.147039E-1,9.588745E0,0E0,0E0,0E0,0E0,0E0,0E0,0E0,0E0,0E0,0E0,0E0],"parents":[2147483647,0,0,1,1,2,2,3,3,4,4,5,5,6,6,8,8,9,9,11,11,12,12,13,13],"right_children":[2,4,6,8,10,12,14,-1,16,18,-1,20,22,24,-1,-1,-1,-1,-1,-1,-1,-1,-1,-1,-1],"split_conditions":[7.767923E-1,7.044736E-1,8.213558E-1,1.3805714E2,1.3770499E2,1.5520866E2,9.037369E-1,-3.23608E-1,6.8783E-1,7.72671E-1,-1.4224787E-1,8.014703E-1,7.863607E-1,1.372818E2,3.6190006E-1,-3.6916733E-2,-1.8105279E-1,-6.909519E-2,-1.9895172E-2,9.5790535E-2,2.8680673E-2,3.0204773E-2,-1.0598374E-2,2.2040515E-1,1.02971785E-1],"split_indices":[1,1,0,3,3,2,0,0,0,0,0,1,0,3,0,0,0,0,0,0,0,0,0,0,0],"split_type":[0,0,0,0,0,0,0,0,0,0,0,0,0,0,0,0,0,0,0,0,0,0,0,0,0],"sum_hessian":[8E1,4.3E1,3.7E1,2.1E1,2.2E1,1E1,2.7E1,1.1E1,1E1,1.5E1,7E0,8E0,2E0,2.2E1,5E0,1E0,9E0,8E0,7E0,6E0,2E0,1E0,1E0,1.7E1,5E0],"tree_param":{"num_deleted":"0","num_feature":"5","num_nodes":"25","size_leaf_vector":"1"}},{"base_weights":[1.19620495E-1,-2.8981493E0,4.3225837E0,-4.553881E0,-3.0558938E-1,3.3211834E0,3.518406E-1,-3.2066324E-1,-3.1645975E0,-1.0479105E0,1.1762883E-1,8.686002E-2,3.6155984E0,-7.921562E-2,-1.6875169E-1,-2.8654734E-2,-9.742012E-2,5.651657E-2,-2.290268E-2,9.313599E-2,1.9592343E-1],"categories":[],"categories_nodes":[],"categories_segments":[],"categories_sizes":[],"default_left":[0,0,0,0,0,0,0,0,0,0,0,0,0,0,0,0,0,0,0,0,0],"id":36,"left_children":[1,3,5,7,9,11,-1,-1,13,15,17,-1,19,-1,-1,-1,-1,-1,-1,-1,-1],"loss_changes":[1.00184644E3,1.960672E2,6.63244E1,5.2034546E1,6.092376E0,5.8440247E0,0E0,0E0,6.387634E-1,1.8763556E0,8.096688E0,0E0,3.8497925E0,0E0,0E0,0E0,0E0,0E0,0E0,0E0,0E0],"parents":[2147483647,0,0,1,1,2,2,3,3,4,4,5,5,8,8,9,9,10,10,12,12],"right_children":[2,4,6,8,10,12,-1,-1,14,16,18,-1,20,-1,-1,-1,-1,-1,-1,-1,-1],"split_conditions":[7.889196E-1,7.2126025E-1,8.7526876E-1,6.921961E-1,7.556017E-1,8.213558E-1,3.518406E-1,-3.2066324E-1,6.9803154E-1,7.6827747E-1,7.7604705E-1,8.686002E-2,1.4423436E2,-7.921562E-2,-1.6875169E-1,-2.8654734E-2,-9.742012E-2,5.651657E-2,-2.290268E-2,9.313599E-2,1.9592343E-1],"split_indices":[0,0,1,1,4,0,0,0,0,0,0,0,2,0,0,0,0,0,0,0,0],"split_type":[0,0,0,0,0,0,0,0,0,0,0,0,0,0,0,0,0,0,0,0,0],"sum_hessian":[7.7E1,4.5E1,3.2E1,2.7E1,1.8E1,2.5E1,7E0,1E1,1.7E1,6E0,1.2E1,5E0,2E1,3E0,1.4E1,5E0,1E0,4E0,8E0,4E0,1.6E1],"tree_param":{"num_deleted":"0","num_feature":"5","num_nodes":"21","size_leaf_vector":"1"}},{"base_weights":[1.5708575E-1,-2.345708E0,4.656878E0,-3.815899E0,-3.3798218E-2,3.6432297E0,3.733488E-1,-2.6385534E-1,-2.7296324E0,1.3529282E0,-3.2396176E-1,4.057761E0,1.2564576E0,-4.642105E-2,-1.4351848E-1,1.5653228E-2,7.9759724E-2,-8.053868E-2,1.2533461E-2,2.0841198E-1,4.896698E-2,7.209988E-2,1.2857437E-2],"categories":[],"categories_nodes":[],"categories_segments":[],"categories_sizes":[],"default_left":[0,0,0,0,0,0,0,0,0,0,0,0,0,0,0,0,0,0,0,0,0,0,0],"id":37,"left_children":[1,3,5,7,9,11,-1,-1,13,15,17,19,21,-1,-1,-1,-1,-1,-1,-1,-1,-1,-1],"loss_changes":[9.456741E2,1.8341425E2,5.8249573E1,3.7975098E1,9.290601E0,1.8647003E1,0E0,0E0,2.6585083E0,5.082965E-1,1.445317E1,2.7198486E0,5.5625105E-1,0E0,0E0,0E0,0E0,0E0,0E0,0E0,0E0,0E0,0E0],"parents":[2147483647,0,0,1,1,2,2,3,3,4,4,5,5,8,8,9,9,10,10,11,11,12,12],"right_children":[2,4,6,8,10,12,-1,-1,14,16,18,20,22,-1,-1,-1,-1,-1,-1,-1,-1,-1,-1],"split_conditions":[7.976889E-1,7.311525E-1,8.9193636E-1,1.2843161E2,1.4771031E2,1.4917603E2,3.733488E-1,-2.6385534E-1,1.3770023E2,7.639762E-1,1.3702373E2,8.7551475E-1,1.3691426E2,-4.642105E-2,-1.4351848E-1,1.5653228E-2,7.9759724E-2,-8.053868E-2,1.2533461E-2,2.0841198E-1,4.896698E-2,7.209988E-2,1.2857437E-2],"split_indices":[1,1,1,2,2,2,0,0,3,1,3,1,3,0,0,0,0,0,0,0,0,0,0],"split_type":[0,0,0,0,0,0,0,0,0,0,0,0,0,0,0,0,0,0,0,0,0,0,0],"sum_hessian":[8.2E1,5.3E1,2.9E1,3.2E1,2.1E1,2.3E1,6E0,1.2E1,2E1,3E0,1.8E1,1.9E1,4E0,2E0,1.8E1,1E0,2E0,5E0,1.3E1,1.8E1,1E0,3E0,1E0],"tree_param":{"num_deleted":"0","num_feature":"5","num_nodes":"23","size_leaf_vector":"1"}},{"base_weights":[-6.0832977E-2,-3.5448265E0,3.1869981E0,-4.7869153E0,-1.6917733E0,2.2612877E0,3.535017E-1,-2.893211E-1,-3.3052075E0,-2.224936E0,-9.113956E-1,6.01005E-1,3.245764E0,-2.4389267E-2,-1.7584965E-1,-4.487381E-2,-1.2223082E-1,-7.352638E-2,-1.9337082E-2,4.1946683E-2,-6.8249896E-2,1.7980456E-1,8.2691066E-2],"categories":[],"categories_nodes":[],"categories_segments":[],"categories_sizes":[],"default_left":[0,0,0,0,0,0,0,0,0,0,0,0,0,0,0,0,0,0,0,0,0,0,0],"id":38,"left_children":[1,3,5,7,9,11,-1,-1,13,15,17,19,21,-1,-1,-1,-1,-1,-1,-1,-1,-1,-1],"loss_changes":[9.6179285E2,8.626959E1,1.4217358E2,1.641809E1,5.4614296E0,5.8526123E1,0E0,0E0,5.4447327E0,7.221832E-1,2.0714426E0,8.161668E0,6.879822E0,0E0,0E0,0E0,0E0,0E0,0E0,0E0,0E0,0E0,0E0],"parents":[2147483647,0,0,1,1,2,2,3,3,4,4,5,5,8,8,9,9,10,10,11,11,12,12],"right_children":[2,4,6,8,10,12,-1,-1,14,16,18,20,22,-1,-1,-1,-1,-1,-1,-1,-1,-1,-1],"split_conditions":[7.72671E-1,7.022151E-1,9.037369E-1,1.3814908E2,7.2126025E-1,8.075155E-1,3.535017E-1,-2.893211E-1,6.8783E-1,1.3770023E2,1.371934E2,8.0429125E-1,1.372818E2,-2.4389267E-2,-1.7584965E-1,-4.487381E-2,-1.2223082E-1,-7.352638E-2,-1.9337082E-2,4.1946683E-2,-6.8249896E-2,1.7980456E-1,8.2691066E-2],"split_indices":[0,4,0,3,0,0,0,0,0,3,3,0,3,0,0,0,0,0,0,0,0,0,0],"split_type":[0,0,0,0,0,0,0,0,0,0,0,0,0,0,0,0,0,0,0,0,0,0,0],"sum_hessian":[8.3E1,4E1,4.3E1,2.3E1,1.7E1,3.6E1,7E0,1.2E1,1.1E1,9E0,8E0,1.4E1,2.2E1,1E0,1E1,2E0,7E0,3E0,5E0,1.3E1,1E0,1.7E1,5E0],"tree_param":{"num_deleted":"0","num_feature":"5","num_nodes":"23","size_leaf_vector":"1"}},{"base_weights":[2.2581313E-2,-2.6572032E0,4.000971E0,-3.7228003E0,-2.2673416E-1,2.6838572E0,6.0822654E0,-2.7662328E-1,-2.9531932E0,-8.3415985E-2,2.342717E-1,3.4051623E0,1.263621E0,1.0318247E-1,3.339812E-1,-2.377968E-2,-1.5166366E-1,-9.185113E-3,4.698853E-2,2.1049403E-1,1.13769434E-1,2.7125359E-2,7.668801E-2],"categories":[],"categories_nodes":[],"categories_segments":[],"categories_sizes":[],"default_left":[0,0,0,0,0,0,0,0,0,0,0,0,0,0,0,0,0,0,0,0,0,0,0],"id":39,"left_children":[1,3,5,7,9,11,13,-1,15,-1,17,19,21,-1,-1,-1,-1,-1,-1,-1,-1,-1,-1],"loss_changes":[8.7419086E2,1.26061035E2,7.413898E1,3.1014435E1,1.1024111E1,1.8234467E1,1.5022217E1,0E0,3.7159576E0,0E0,4.0060797E0,3.1489868E0,9.21134E-1,0E0,0E0,0E0,0E0,0E0,0E0,0E0,0E0,0E0,0E0],"parents":[2147483647,0,0,1,1,2,2,3,3,4,4,5,5,6,6,8,8,10,10,11,11,12,12],"right_children":[2,4,6,8,10,12,14,-1,16,-1,18,20,22,-1,-1,-1,-1,-1,-1,-1,-1,-1,-1],"split_conditions":[7.889196E-1,7.2126025E-1,8.35273E-1,6.754579E-1,1.3698482E2,1.4923888E2,1.4362082E2,-2.7662328E-1,6.813202E-1,-8.3415985E-2,1.3725006E2,8.659603E-1,1.5060628E2,1.0318247E-1,3.339812E-1,-2.377968E-2,-1.5166366E-1,-9.185113E-3,4.698853E-2,2.1049403E-1,1.13769434E-1,2.7125359E-2,7.668801E-2],"split_indices":[0,0,4,0,3,2,2,0,4,0,3,0,2,0,0,0,0,0,0,0,0,0,0],"split_type":[0,0,0,0,0,0,0,0,0,0,0,0,0,0,0,0,0,0,0,0,0,0,0],"sum_hessian":[8E1,4.8E1,3.2E1,3.3E1,1.5E1,2.1E1,1.1E1,8E0,2.5E1,3E0,1.2E1,1.3E1,8E0,2E0,9E0,1E0,2.4E1,8E0,4E0,6E0,7E0,3E0,5E0],"tree_param":{"num_deleted":"0","num_feature":"5","num_nodes":"23","size_leaf_vector":"1"}},{"base_weights":[7.019374E-2,-3.448059E0,2.9750504E0,-4.124414E0,-1.9939924E0,7.967893E-1,4.6199903E0,-2.954239E-1,-1.7516182E-1,-1.1355569E0,-1.2479372E-1,2.591987E-1,1.4847769E0,1.8314241E-1,3.3473423E-1,-3.6558405E-2,-8.9047246E-2,6.395508E-2,-1.6810693E-2,8.572497E-2,2.26916E-2],"categories":[],"categories_nodes":[],"categories_segments":[],"categories_sizes":[],"default_left":[0,0,0,0,0,0,0,0,0,0,0,0,0,0,0,0,0,0,0,0,0],"id":40,"left_children":[1,3,5,7,9,11,13,-1,-1,15,-1,17,19,-1,-1,-1,-1,-1,-1,-1,-1],"loss_changes":[8.585199E2,2.9147644E1,1.6114185E2,7.006714E0,3.1974602E0,7.3821163E0,2.7108643E1,0E0,0E0,5.247431E-1,0E0,8.3244705E0,1.3533878E0,0E0,0E0,0E0,0E0,0E0,0E0,0E0,0E0],"parents":[2147483647,0,0,1,1,2,2,3,3,4,4,5,5,6,6,9,9,11,11,12,12],"right_children":[2,4,6,8,10,12,14,-1,-1,16,-1,18,20,-1,-1,-1,-1,-1,-1,-1,-1],"split_conditions":[7.556017E-1,7.044736E-1,8.404617E-1,1.3725647E2,1.3770023E2,7.976889E-1,9.1272604E-1,-2.954239E-1,-1.7516182E-1,7.6827747E-1,-1.2479372E-1,7.7614236E-1,8.431697E-1,1.8314241E-1,3.3473423E-1,-3.6558405E-2,-8.9047246E-2,6.395508E-2,-1.6810693E-2,8.572497E-2,2.26916E-2],"split_indices":[4,1,1,3,3,1,0,0,0,0,0,0,0,0,0,0,0,0,0,0,0],"split_type":[0,0,0,0,0,0,0,0,0,0,0,0,0,0,0,0,0,0,0,0,0],"sum_hessian":[8.2E1,3.7E1,4.5E1,2.4E1,1.3E1,2E1,2.5E1,4E0,2E1,6E0,7E0,1.2E1,8E0,1.9E1,6E0,5E0,1E0,4E0,8E0,6E0,2E0],"tree_param":{"num_deleted":"0","num_feature":"5","num_nodes":"21","size_leaf_vector":"1"}},{"base_weights":[1.7453599E-1,-2.606321E0,3.4630632E0,-3.9645338E0,-8.6529106E-1,2.3979855E0,5.5709E0,-2.5555208E-1,-2.5130615E0,-1.1890188E0,-3.015408E-1,2.9392967E0,7.449589E-1,9.3638614E-2,3.0616242E-1,-7.083893E-2,-1.6251679E-1,-1.739273E-2,-6.551673E-2,2.0016288E-2,-3.5959754E-2,1.6877614E-1,6.794243E-2,-1.0472489E-2,4.556122E-2],"categories":[],"categories_nodes":[],"categories_segments":[],"categories_sizes":[],"default_left":[0,0,0,0,0,0,0,0,0,0,0,0,0,0,0,0,0,0,0,0,0,0,0,0,0],"id":41,"left_children":[1,3,5,7,9,11,13,-1,15,17,19,21,23,-1,-1,-1,-1,-1,-1,-1,-1,-1,-1,-1,-1],"loss_changes":[7.5890967E2,1.0298053E2,7.195145E1,2.8758698E1,3.473998E0,2.1970001E1,1.3044434E1,0E0,5.9023895E0,8.707981E-1,2.9261503E0,9.201828E0,1.4603376E0,0E0,0E0,0E0,0E0,0E0,0E0,0E0,0E0,0E0,0E0,0E0,0E0],"parents":[2147483647,0,0,1,1,2,2,3,3,4,4,5,5,6,6,8,8,9,9,10,10,11,11,12,12],"right_children":[2,4,6,8,10,12,14,-1,16,18,20,22,24,-1,-1,-1,-1,-1,-1,-1,-1,-1,-1,-1,-1],"split_conditions":[7.6740515E-1,7.0603573E-1,8.35273E-1,1.3814908E2,7.556017E-1,1.4923888E2,1.4362082E2,-2.5555208E-1,6.9831616E-1,1.5789156E2,7.752669E-1,1.372818E2,7.7196944E-1,9.3638614E-2,3.0616242E-1,-7.083893E-2,-1.6251679E-1,-1.739273E-2,-6.551673E-2,2.0016288E-2,-3.5959754E-2,1.6877614E-1,6.794243E-2,-1.0472489E-2,4.556122E-2],"split_indices":[4,4,4,3,4,2,2,0,0,2,0,3,4,0,0,0,0,0,0,0,0,0,0,0,0],"split_type":[0,0,0,0,0,0,0,0,0,0,0,0,0,0,0,0,0,0,0,0,0,0,0,0,0],"sum_hessian":[8.1E1,4.4E1,3.7E1,2.4E1,2E1,2.6E1,1.1E1,1.2E1,1.2E1,1.2E1,8E0,1.9E1,7E0,2E0,9E0,6E0,6E0,2E0,1E1,3E0,5E0,1.4E1,5E0,1E0,6E0],"tree_param":{"num_deleted":"0","num_feature":"5","num_nodes":"25","size_leaf_vector":"1"}},{"base_weights":[5.0611224E-2,-2.8748863E0,2.3046277E0,-2.2924316E-1,-1.9750936E0,1.072713E0,4.943326E0,-1.1143968E0,-2.2957144E0,1.9692993E0,4.9415243E-1,1.0036965E-1,2.7550134E-1,-7.380264E-2,-2.6493073E-2,-1.7035294E-2,-1.1953367E-1,1.0561085E-1,6.357193E-3,-7.5569155E-4,7.937982E-2],"categories":[],"categories_nodes":[],"categories_segments":[],"categories_sizes":[],"default_left":[0,0,0,0,0,0,0,0,0,0,0,0,0,0,0,0,0,0,0,0,0],"id":42,"left_children":[1,3,5,-1,7,9,11,13,15,17,19,-1,-1,-1,-1,-1,-1,-1,-1,-1,-1],"loss_changes":[5.605316E2,4.7873566E1,1.5072844E2,0E0,4.616562E0,1.666367E1,1.3896149E1,1.1205025E0,2.5271072E0,3.1540375E0,1.2274786E1,0E0,0E0,0E0,0E0,0E0,0E0,0E0,0E0,0E0,0E0],"parents":[2147483647,0,0,1,1,2,2,4,4,5,5,6,6,7,7,8,8,9,9,10,10],"right_children":[2,4,6,-1,8,10,12,14,16,18,20,-1,-1,-1,-1,-1,-1,-1,-1,-1,-1],"split_conditions":[7.72671E-1,1.2843161E2,8.5703284E-1,-2.2924316E-1,1.3770499E2,1.3675284E2,1.4362082E2,1.5856403E2,6.8783E-1,8.713538E-1,1.3731052E2,1.0036965E-1,2.7550134E-1,-7.380264E-2,-2.6493073E-2,-1.7035294E-2,-1.1953367E-1,1.0561085E-1,6.357193E-3,-7.5569155E-4,7.937982E-2],"split_indices":[0,2,1,0,3,3,2,2,0,0,3,0,0,0,0,0,0,0,0,0,0],"split_type":[0,0,0,0,0,0,0,0,0,0,0,0,0,0,0,0,0,0,0,0,0],"sum_hessian":[8.3E1,3.6E1,4.7E1,1.1E1,2.5E1,3.3E1,1.4E1,8E0,1.7E1,1.2E1,2.1E1,3E0,1.1E1,4E0,4E0,1E0,1.6E1,1.1E1,1E0,1.5E1,6E0],"tree_param":{"num_deleted":"0","num_feature":"5","num_nodes":"21","size_leaf_vector":"1"}},{"base_weights":[-3.8960895E-1,-2.7740903E0,1.9462168E0,-3.657959E0,-1.4905862E0,5.174956E-1,3.4204993E0,-2.3238634E-1,-2.3633614E0,-1.9733856E0,-7.8852165E-1,-9.498494E-2,1.6012096E0,2.580973E0,3.066681E-1,-7.676201E-2,-1.6078416E-1,-4.053688E-2,-1.1779219E-1,-1.6150992E-2,-8.05926E-2,2.3156835E-2,-3.2061674E-2,9.823506E-2,1.7024485E-2,1.4163123E-1,-3.6136247E-2],"categories":[],"categories_nodes":[],"categories_segments":[],"categories_sizes":[],"default_left":[0,0,0,0,0,0,0,0,0,0,0,0,0,0,0,0,0,0,0,0,0,0,0,0,0,0,0],"id":43,"left_children":[1,3,5,7,9,11,13,-1,15,17,19,21,23,25,-1,-1,-1,-1,-1,-1,-1,-1,-1,-1,-1,-1,-1],"loss_changes":[4.509776E2,3.9925476E1,8.458978E1,1.8486816E1,4.5451584E0,1.4754674E1,2.9720367E1,0E0,3.5330658E0,2.5366707E0,2.9286957E0,4.870075E0,2.9971294E0,1.6180664E1,0E0,0E0,0E0,0E0,0E0,0E0,0E0,0E0,0E0,0E0,0E0,0E0,0E0],"parents":[2147483647,0,0,1,1,2,2,3,3,4,4,5,5,6,6,8,8,9,9,10,10,11,11,12,12,13,13],"right_children":[2,4,6,8,10,12,14,-1,16,18,20,22,24,26,-1,-1,-1,-1,-1,-1,-1,-1,-1,-1,-1,-1,-1],"split_conditions":[7.72671E-1,7.044736E-1,8.404617E-1,1.3814908E2,7.2126025E-1,1.3722182E2,9.037369E-1,-2.3238634E-1,6.9831616E-1,7.0912004E-1,7.650295E-1,1.3693344E2,8.431697E-1,1.372818E2,3.066681E-1,-7.676201E-2,-1.6078416E-1,-4.053688E-2,-1.1779219E-1,-1.6150992E-2,-8.05926E-2,2.3156835E-2,-3.2061674E-2,9.823506E-2,1.7024485E-2,1.4163123E-1,-3.6136247E-2],"split_indices":[0,1,1,3,0,3,0,0,0,0,1,3,0,3,0,0,0,0,0,0,0,0,0,0,0,0,0],"split_type":[0,0,0,0,0,0,0,0,0,0,0,0,0,0,0,0,0,0,0,0,0,0,0,0,0,0,0],"sum_hessian":[7.9E1,3.9E1,4E1,2.2E1,1.7E1,2.1E1,1.9E1,1.1E1,1.1E1,9E0,8E0,1.4E1,7E0,1.6E1,3E0,7E0,4E0,3E0,6E0,6E0,2E0,7E0,7E0,5E0,2E0,1.5E1,1E0],"tree_param":{"num_deleted":"0","num_feature":"5","num_nodes":"27","size_leaf_vector":"1"}},{"base_weights":[-5.6095418E-2,-2.2753537E0,3.3819852E0,-3.6365433E0,-8.7759763E-1,2.6899314E0,2.90861E-1,-2.67818E-1,-3.024762E0,-1.6457214E0,-4.193205E-1,3.1086965E0,7.759323E-1,-3.976237E-2,-1.6141526E-1,-5.747061E-2,-1.404049E-1,3.6694847E-2,-3.1100465E-2,2.3736726E-1,1.2859236E-1,1.899128E-2,5.2271526E-2],"categories":[],"categories_nodes":[],"categories_segments":[],"categories_sizes":[],"default_left":[0,0,0,0,0,0,0,0,0,0,0,0,0,0,0,0,0,0,0,0,0,0,0],"id":44,"left_children":[1,3,5,7,9,11,-1,-1,13,15,17,19,21,-1,-1,-1,-1,-1,-1,-1,-1,-1,-1],"loss_changes":[6.0283435E2,8.813391E1,3.65968E1,9.049927E0,8.110256E0,1.8427277E1,0E0,0E0,6.5087585E0,1.9644222E0,4.4301424E0,6.264435E0,2.4341917E-1,0E0,0E0,0E0,0E0,0E0,0E0,0E0,0E0,0E0,0E0],"parents":[2147483647,0,0,1,1,2,2,3,3,4,4,5,5,8,8,9,9,10,10,11,11,12,12],"right_children":[2,4,6,8,10,12,-1,-1,14,16,18,20,22,-1,-1,-1,-1,-1,-1,-1,-1,-1,-1],"split_conditions":[7.976889E-1,7.0603573E-1,9.1272604E-1,6.620493E-1,7.2126025E-1,1.4917603E2,2.90861E-1,-2.67818E-1,6.661185E-1,7.1248376E-1,1.4730025E2,8.4957564E-1,1.509769E2,-3.976237E-2,-1.6141526E-1,-5.747061E-2,-1.404049E-1,3.6694847E-2,-3.1100465E-2,2.3736726E-1,1.2859236E-1,1.899128E-2,5.2271526E-2],"split_indices":[1,4,0,1,0,2,0,0,0,0,2,0,2,0,0,0,0,0,0,0,0,0,0],"split_type":[0,0,0,0,0,0,0,0,0,0,0,0,0,0,0,0,0,0,0,0,0,0,0],"sum_hessian":[7.7E1,4.7E1,3E1,2.3E1,2.4E1,2.5E1,5E0,4E0,1.9E1,8E0,1.6E1,2E1,5E0,2E0,1.7E1,7E0,1E0,2E0,1.4E1,3E0,1.7E1,3E0,2E0],"tree_param":{"num_deleted":"0","num_feature":"5","num_nodes":"23","size_leaf_vector":"1"}},{"base_weights":[-1.4037816E-1,-2.1753604E0,2.2283952E0,-1.7970939E-1,-1.5101954E0,1.3559602E0,4.4483733E0,-2.341245E0,-9.360558E-1,1.9248776E0,3.017356E-1,1.5632833E0,2.4871178E-1,-1.0654831E-2,-1.2576704E-1,-5.8432337E-2,-1.6857585E-2,4.5577545E-2,1.0746443E-1,-7.4007034E-2,3.1396866E-2,9.276276E-2,2.448349E-2],"categories":[],"categories_nodes":[],"categories_segments":[],"categories_sizes":[],"default_left":[0,0,0,0,0,0,0,0,0,0,0,0,0,0,0,0,0,0,0,0,0,0,0],"id":45,"left_children":[1,3,5,-1,7,9,11,13,15,17,19,21,-1,-1,-1,-1,-1,-1,-1,-1,-1,-1,-1],"loss_changes":[3.856601E2,3.515352E1,6.562929E1,0E0,1.2599762E1,1.6212666E1,7.395447E0,3.9100037E0,2.3919811E0,2.1340408E0,7.323198E0,3.1932354E-2,0E0,0E0,0E0,0E0,0E0,0E0,0E0,0E0,0E0,0E0,0E0],"parents":[2147483647,0,0,1,1,2,2,4,4,5,5,6,6,7,7,8,8,9,9,10,10,11,11],"right_children":[2,4,6,-1,8,10,12,14,16,18,20,22,-1,-1,-1,-1,-1,-1,-1,-1,-1,-1,-1],"split_conditions":[7.767923E-1,1.2843161E2,8.7526876E-1,-1.7970939E-1,7.044736E-1,1.4875497E2,1.4362082E2,6.8783E-1,7.556017E-1,1.4423436E2,1.490458E2,8.767966E-1,2.4871178E-1,-1.0654831E-2,-1.2576704E-1,-5.8432337E-2,-1.6857585E-2,4.5577545E-2,1.0746443E-1,-7.4007034E-2,3.1396866E-2,9.276276E-2,2.448349E-2],"split_indices":[1,2,1,0,1,2,2,0,4,2,2,0,0,0,0,0,0,0,0,0,0,0,0],"split_type":[0,0,0,0,0,0,0,0,0,0,0,0,0,0,0,0,0,0,0,0,0,0,0],"sum_hessian":[7.8E1,4.2E1,3.6E1,1.2E1,3E1,2.7E1,9E0,1.1E1,1.9E1,1.7E1,1E1,2E0,7E0,1E0,1E1,1.3E1,6E0,4E0,1.3E1,1E0,9E0,1E0,1E0],"tree_param":{"num_deleted":"0","num_feature":"5","num_nodes":"23","size_leaf_vector":"1"}},{"base_weights":[-6.377876E-2,-2.60406E0,2.1892836E0,-3.4959223E0,-1.3693357E0,6.538367E-1,3.2271376E0,-2.1772492E-1,-2.2414827E0,-1.6346855E0,-7.1883065E-1,4.1094017E-1,1.4619637E0,2.5228832E0,2.1385379E-1,-4.3338396E-2,-1.3243274E-1,-3.337116E-2,-9.414741E-2,-1.5570195E-2,-7.908478E-2,6.1878663E-2,1.6132355E-3,1.0729599E-2,9.031118E-2,1.4550014E-1,2.2023201E-2],"categories":[],"categories_nodes":[],"categories_segments":[],"categories_sizes":[],"default_left":[0,0,0,0,0,0,0,0,0,0,0,0,0,0,0,0,0,0,0,0,0,0,0,0,0,0,0],"id":46,"left_children":[1,3,5,7,9,11,13,-1,15,17,19,21,23,25,-1,-1,-1,-1,-1,-1,-1,-1,-1,-1,-1,-1,-1],"loss_changes":[4.7502075E2,3.815988E1,6.8007065E1,1.3934174E1,1.931942E0,3.1287537E0,8.434479E0,0E0,3.8614311E0,1.6249008E0,1.968333E0,4.9684806E0,1.3300791E0,1.3228859E1,0E0,0E0,0E0,0E0,0E0,0E0,0E0,0E0,0E0,0E0,0E0,0E0,0E0],"parents":[2147483647,0,0,1,1,2,2,3,3,4,4,5,5,6,6,8,8,9,9,10,10,11,11,12,12,13,13],"right_children":[2,4,6,8,10,12,14,-1,16,18,20,22,24,26,-1,-1,-1,-1,-1,-1,-1,-1,-1,-1,-1,-1,-1],"split_conditions":[7.556017E-1,7.039768E-1,8.213558E-1,1.3814908E2,7.2126025E-1,1.3719826E2,8.7526876E-1,-2.1772492E-1,6.957178E-1,7.094356E-1,7.6827747E-1,1.3675284E2,7.702476E-1,1.372818E2,2.1385379E-1,-4.3338396E-2,-1.3243274E-1,-3.337116E-2,-9.414741E-2,-1.5570195E-2,-7.908478E-2,6.1878663E-2,1.6132355E-3,1.0729599E-2,9.031118E-2,1.4550014E-1,2.2023201E-2],"split_indices":[4,1,0,3,0,3,1,0,0,1,0,3,0,3,0,0,0,0,0,0,0,0,0,0,0,0,0],"split_type":[0,0,0,0,0,0,0,0,0,0,0,0,0,0,0,0,0,0,0,0,0,0,0,0,0,0,0],"sum_hessian":[8.1E1,3.8E1,4.3E1,2.1E1,1.7E1,1.8E1,2.5E1,1.1E1,1E1,1.1E1,6E0,1.5E1,3E0,1.7E1,8E0,3E0,7E0,3E0,8E0,5E0,1E0,4E0,1.1E1,1E0,2E0,1.4E1,3E0],"tree_param":{"num_deleted":"0","num_feature":"5","num_nodes":"27","size_leaf_vector":"1"}},{"base_weights":[-5.0281707E-2,-2.0643442E0,2.1123776E0,-2.8773437E0,-9.448776E-1,9.500714E-1,3.697394E0,-2.2119033E-1,-2.3721218E0,-1.3004838E-1,-7.20822E-1,1.5648627E0,2.6219764E-1,2.6965802E0,2.5413945E-1,-6.420758E-2,-1.3159266E-1,1.3103104E-2,-3.9499283E-2,2.9604593E-2,1.0494166E-1,-2.6157508E-2,4.0921688E-2,1.4206716E-1,2.7604675E-2],"categories":[],"categories_nodes":[],"categories_segments":[],"categories_sizes":[],"default_left":[0,0,0,0,0,0,0,0,0,0,0,0,0,0,0,0,0,0,0,0,0,0,0,0,0],"id":47,"left_children":[1,3,5,7,9,11,13,-1,15,-1,17,19,21,23,-1,-1,-1,-1,-1,-1,-1,-1,-1,-1,-1],"loss_changes":[3.702421E2,3.7326813E1,7.202045E1,9.038864E0,5.5462894E0,1.016217E1,9.864746E0,0E0,2.5544662E0,0E0,1.4986429E0,5.509897E0,6.1070685E0,2.1566162E0,0E0,0E0,0E0,0E0,0E0,0E0,0E0,0E0,0E0,0E0,0E0],"parents":[2147483647,0,0,1,1,2,2,3,3,4,4,5,5,6,6,8,8,10,10,11,11,12,12,13,13],"right_children":[2,4,6,8,10,12,14,-1,16,-1,18,20,22,24,-1,-1,-1,-1,-1,-1,-1,-1,-1,-1,-1],"split_conditions":[7.65552E-1,7.022151E-1,8.727549E-1,1.3725647E2,1.2843161E2,1.3691426E2,9.1272604E-1,-2.2119033E-1,1.3771428E2,-1.3004838E-1,1.3678333E2,1.3514262E2,1.3711115E2,1.4923888E2,2.5413945E-1,-6.420758E-2,-1.3159266E-1,1.3103104E-2,-3.9499283E-2,2.9604593E-2,1.0494166E-1,-2.6157508E-2,4.0921688E-2,1.4206716E-1,2.7604675E-2],"split_indices":[4,4,0,3,2,3,0,0,3,0,3,3,3,2,0,0,0,0,0,0,0,0,0,0,0],"split_type":[0,0,0,0,0,0,0,0,0,0,0,0,0,0,0,0,0,0,0,0,0,0,0,0,0],"sum_hessian":[8.3E1,4.3E1,4E1,2.4E1,1.9E1,2.4E1,1.6E1,4E0,2E1,1E0,1.8E1,1.2E1,1.2E1,1.1E1,5E0,5E0,1.5E1,1E0,1.7E1,5E0,7E0,5E0,7E0,1E1,1E0],"tree_param":{"num_deleted":"0","num_feature":"5","num_nodes":"25","size_leaf_vector":"1"}},{"base_weights":[4.4540013E-3,-2.4063048E0,1.922002E0,-2.2150205E-1,-1.9213475E0,1.5397146E0,2.6799735E-1,-2.0033927E0,1.1449051E-2,6.397059E-1,2.0901318E0,-1.952464E-2,-1.0542021E-1,4.8113953E-2,-5.6029004E-3,1.9408697E-1,8.8278435E-2],"categories":[],"categories_nodes":[],"categories_segments":[],"categories_sizes":[],"default_left":[0,0,0,0,0,0,0,0,0,0,0,0,0,0,0,0,0],"id":48,"left_children":[1,3,5,-1,7,9,-1,11,-1,13,15,-1,-1,-1,-1,-1,-1],"loss_changes":[3.6519907E2,2.5838257E1,4.957567E1,0E0,5.751465E0,1.8973526E1,0E0,4.0884933E0,0E0,4.2303114E0,7.683777E0,0E0,0E0,0E0,0E0,0E0,0E0],"parents":[2147483647,0,0,1,1,2,2,4,4,5,5,7,7,9,9,10,10],"right_children":[2,4,6,-1,8,10,-1,12,-1,14,16,-1,-1,-1,-1,-1,-1],"split_conditions":[7.72671E-1,6.607993E-1,9.1272604E-1,-2.2150205E-1,7.65714E-1,8.0998266E-1,2.6799735E-1,6.661185E-1,1.1449051E-2,1.5583562E2,1.4170424E2,-1.952464E-2,-1.0542021E-1,4.8113953E-2,-5.6029004E-3,1.9408697E-1,8.8278435E-2],"split_indices":[0,0,0,0,1,0,0,0,0,2,2,0,0,0,0,0,0],"split_type":[0,0,0,0,0,0,0,0,0,0,0,0,0,0,0,0,0],"sum_hessian":[7.7E1,3.4E1,4.3E1,5E0,2.9E1,4E1,3E0,2.8E1,1E0,1.6E1,2.4E1,2E0,2.6E1,1.1E1,5E0,2E0,2.2E1],"tree_param":{"num_deleted":"0","num_feature":"5","num_nodes":"17","size_leaf_vector":"1"}},{"base_weights":[-1.1602083E-1,-1.8116444E0,1.4314588E0,-2.5237525E0,-6.578593E-1,5.492992E-1,3.1591582E0,-2.1282624E-1,-1.991009E0,-5.152645E-1,-7.348442E-2,1.283858E0,8.109894E-2,1.3462143E0,1.7501049E-1,-3.9584655E-2,-1.1133154E-1,-3.7176162E-2,1.7769624E-2,7.1534246E-2,-8.280945E-3,-1.4186605E-2,4.8983004E-2,8.123677E-2,1.2766266E-2],"categories":[],"categories_nodes":[],"categories_segments":[],"categories_sizes":[],"default_left":[0,0,0,0,0,0,0,0,0,0,0,0,0,0,0,0,0,0,0,0,0,0,0,0,0],"id":49,"left_children":[1,3,5,7,9,11,13,-1,15,17,-1,19,21,23,-1,-1,-1,-1,-1,-1,-1,-1,-1,-1,-1],"loss_changes":[2.2562846E2,3.202614E1,6.684947E1,1.4603287E1,1.2106862E0,1.0557419E1,4.5625916E0,0E0,4.1714783E0,3.444003E0,0E0,2.7908154E0,6.83442E0,8.005061E-1,0E0,0E0,0E0,0E0,0E0,0E0,0E0,0E0,0E0,0E0,0E0],"parents":[2147483647,0,0,1,1,2,2,3,3,4,4,5,5,6,6,8,8,9,9,11,11,12,12,13,13],"right_children":[2,4,6,8,10,12,14,-1,16,18,-1,20,22,24,-1,-1,-1,-1,-1,-1,-1,-1,-1,-1,-1],"split_conditions":[7.72671E-1,7.0603573E-1,8.727549E-1,1.3725647E2,7.7227294E-1,1.3607088E2,1.4362082E2,-2.1282624E-1,1.3771428E2,7.640359E-1,-7.348442E-2,8.713538E-1,1.3731052E2,1.4265274E2,1.7501049E-1,-3.9584655E-2,-1.1133154E-1,-3.7176162E-2,1.7769624E-2,7.1534246E-2,-8.280945E-3,-1.4186605E-2,4.8983004E-2,8.123677E-2,1.2766266E-2],"split_indices":[0,4,0,3,0,3,2,0,3,0,0,0,3,2,0,0,0,0,0,0,0,0,0,0,0],"split_type":[0,0,0,0,0,0,0,0,0,0,0,0,0,0,0,0,0,0,0,0,0,0,0,0,0],"sum_hessian":[8.4E1,4E1,4.4E1,2.4E1,1.6E1,3E1,1.4E1,4E0,2E1,1.5E1,1E0,1.1E1,1.9E1,3E0,1.1E1,4E0,1.6E1,1.2E1,3E0,1E1,1E0,1.4E1,5E0,2E0,1E0],"tree_param":{"num_deleted":"0","num_feature":"5","num_nodes":"25","size_leaf_vector":"1"}},{"base_weights":[-1.3785526E-3,-1.8957651E0,1.8088436E0,-2.0484887E-1,-1.4983168E0,4.3587494E-1,2.626865E0,-1.7453903E0,-5.082584E-1,6.744924E-1,-5.6790924E-1,2.1033733E0,2.3071258E-1,-1.0949677E-1,-4.9780276E-2,-1.06777195E-2,-7.1647264E-2,5.923894E-2,-3.8973128E-3,-7.239151E-2,1.0400391E-2,2.4650383E-1,8.830609E-2],"categories":[],"categories_nodes":[],"categories_segments":[],"categories_sizes":[],"default_left":[0,0,0,0,0,0,0,0,0,0,0,0,0,0,0,0,0,0,0,0,0,0,0],"id":50,"left_children":[1,3,5,-1,7,9,11,13,15,17,19,21,-1,-1,-1,-1,-1,-1,-1,-1,-1,-1,-1],"loss_changes":[3.017748E2,3.1480759E1,4.9395294E1,0E0,8.40834E0,4.694418E0,1.9425156E1,7.819092E0,2.1465688E0,5.851738E0,3.0321429E0,1.417231E1,0E0,0E0,0E0,0E0,0E0,0E0,0E0,0E0,0E0,0E0,0E0],"parents":[2147483647,0,0,1,1,2,2,4,4,5,5,6,6,7,7,8,8,9,9,10,10,11,11],"right_children":[2,4,6,-1,8,10,12,14,16,18,20,22,-1,-1,-1,-1,-1,-1,-1,-1,-1,-1,-1],"split_conditions":[7.72671E-1,6.6086465E-1,8.087937E-1,-2.0484887E-1,7.2126025E-1,8.0429125E-1,9.1272604E-1,1.6061021E2,7.702476E-1,1.5583562E2,8.075155E-1,1.4170424E2,2.3071258E-1,-1.0949677E-1,-4.9780276E-2,-1.06777195E-2,-7.1647264E-2,5.923894E-2,-3.8973128E-3,-7.239151E-2,1.0400391E-2,2.4650383E-1,8.830609E-2],"split_indices":[0,4,0,0,0,0,0,2,0,2,0,2,0,0,0,0,0,0,0,0,0,0,0],"split_type":[0,0,0,0,0,0,0,0,0,0,0,0,0,0,0,0,0,0,0,0,0,0,0],"sum_hessian":[8.6E1,4.2E1,4.4E1,5E0,3.7E1,1.7E1,2.7E1,2.9E1,8E0,1.4E1,3E0,2.3E1,4E0,1.7E1,1.2E1,7E0,1E0,8E0,6E0,1E0,2E0,1E0,2.2E1],"tree_param":{"num_deleted":"0","num_feature":"5","num_nodes":"23","size_leaf_vector":"1"}},{"base_weights":[-7.109523E-2,-1.8211617E0,1.5346136E0,-1.5101454E-1,-1.2771044E0,1.875407E-1,2.2672813E0,-1.8320671E0,-6.076374E-1,-1.7958178E-1,1.1779754E0,1.6723256E0,2.7904124E0,-1.6668473E-1,-7.048019E-2,-2.048754E-2,-6.642812E-2,-4.8143007E-2,6.0786163E-3,1.6098531E-2,8.206609E-2,1.798734E-1,5.8790434E-2,2.9708862E-2,1.5412943E-1],"categories":[],"categories_nodes":[],"categories_segments":[],"categories_sizes":[],"default_left":[0,0,0,0,0,0,0,0,0,0,0,0,0,0,0,0,0,0,0,0,0,0,0,0,0],"id":51,"left_children":[1,3,5,-1,7,9,11,13,15,17,19,21,23,-1,-1,-1,-1,-1,-1,-1,-1,-1,-1,-1,-1],"loss_changes":[2.5851364E2,2.4848145E1,4.6948715E1,0E0,1.07757E1,6.7565384E0,4.981964E0,6.085312E0,1.738203E0,3.4194818E0,1.4546762E0,1.2019783E1,7.7937164E0,0E0,0E0,0E0,0E0,0E0,0E0,0E0,0E0,0E0,0E0,0E0,0E0],"parents":[2147483647,0,0,1,1,2,2,4,4,5,5,6,6,7,7,8,8,9,9,10,10,11,11,12,12],"right_children":[2,4,6,-1,8,10,12,14,16,18,20,22,24,-1,-1,-1,-1,-1,-1,-1,-1,-1,-1,-1,-1],"split_conditions":[7.65714E-1,1.2843161E2,7.873392E-1,-1.5101454E-1,7.0664185E-1,1.3722182E2,8.5703284E-1,1.3803563E2,7.650295E-1,7.6461095E-1,7.666943E-1,1.4170424E2,1.4362082E2,-1.6668473E-1,-7.048019E-2,-2.048754E-2,-6.642812E-2,-4.8143007E-2,6.0786163E-3,1.6098531E-2,8.206609E-2,1.798734E-1,5.8790434E-2,2.9708862E-2,1.5412943E-1],"split_indices":[1,2,4,0,4,3,1,3,1,4,1,2,2,0,0,0,0,0,0,0,0,0,0,0,0],"split_type":[0,0,0,0,0,0,0,0,0,0,0,0,0,0,0,0,0,0,0,0,0,0,0,0,0],"sum_hessian":[9E1,4.3E1,4.7E1,1.2E1,3.1E1,1.7E1,3E1,1.6E1,1.5E1,1.3E1,4E0,1.6E1,1.4E1,2E0,1.4E1,1.3E1,2E0,3E0,1E1,2E0,2E0,2E0,1.4E1,2E0,1.2E1],"tree_param":{"num_deleted":"0","num_feature":"5","num_nodes":"25","size_leaf_vector":"1"}},{"base_weights":[-2.161766E-2,-1.9337679E0,1.4129454E0,-1.758523E-1,-1.4303199E0,4.523691E-1,2.437382E0,-7.283949E-1,-1.7614176E0,1.1554478E0,1.836731E-1,1.8214657E0,2.1451937E-1,-4.8170473E-2,1.09723415E-2,-1.047845E-1,-2.0315858E-2,8.314301E-2,-3.7694294E-3,-7.485148E-2,2.2679308E-2,2.3584442E-1,6.992798E-2],"categories":[],"categories_nodes":[],"categories_segments":[],"categories_sizes":[],"default_left":[0,0,0,0,0,0,0,0,0,0,0,0,0,0,0,0,0,0,0,0,0,0,0],"id":52,"left_children":[1,3,5,-1,7,9,11,13,15,17,19,21,-1,-1,-1,-1,-1,-1,-1,-1,-1,-1,-1],"loss_changes":[2.3040964E2,2.3665024E1,4.613179E1,0E0,5.4567604E0,4.699551E0,1.8434998E1,2.6617403E0,7.7549706E0,4.4971514E0,9.7519045E0,1.6668499E1,0E0,0E0,0E0,0E0,0E0,0E0,0E0,0E0,0E0,0E0,0E0],"parents":[2147483647,0,0,1,1,2,2,4,4,5,5,6,6,7,7,8,8,9,9,10,10,11,11],"right_children":[2,4,6,-1,8,10,12,14,16,18,20,22,-1,-1,-1,-1,-1,-1,-1,-1,-1,-1,-1],"split_conditions":[7.640359E-1,6.662137E-1,8.404617E-1,-1.758523E-1,6.9831616E-1,1.4771031E2,9.1272604E-1,6.988661E-1,7.2126025E-1,8.414891E-1,1.5056207E2,8.4957564E-1,2.1451937E-1,-4.8170473E-2,1.09723415E-2,-1.047845E-1,-2.0315858E-2,8.314301E-2,-3.7694294E-3,-7.485148E-2,2.2679308E-2,2.3584442E-1,6.992798E-2],"split_indices":[0,0,1,0,0,2,0,1,0,0,2,0,0,0,0,0,0,0,0,0,0,0,0],"split_type":[0,0,0,0,0,0,0,0,0,0,0,0,0,0,0,0,0,0,0,0,0,0,0],"sum_hessian":[8.2E1,3.5E1,4.7E1,7E0,2.8E1,2.5E1,2.2E1,1E1,1.8E1,6E0,1.9E1,1.8E1,4E0,8E0,2E0,1.4E1,4E0,4E0,2E0,2E0,1.7E1,1E0,1.7E1],"tree_param":{"num_deleted":"0","num_feature":"5","num_nodes":"23","size_leaf_vector":"1"}},{"base_weights":[2.7930704E-1,-8.8277406E-1,2.5104883E0,-2.0189986E0,-3.852606E-2,1.846206E0,3.9404182E0,-1.4799538E-1,-1.5931956E0,3.6629945E-1,-3.7374032E-1,1.131134E0,2.19924E0,3.1471252E-3,4.4853516E0,4.81308E-3,-1.0413867E-1,3.7802957E-2,-2.822159E-2,-6.096802E-2,-9.5913885E-3,2.411518E-2,6.875827E-2,1.2133553E-1,3.160502E-2,3.0387726E-1,1.3164826E-1],"categories":[],"categories_nodes":[],"categories_segments":[],"categories_sizes":[],"default_left":[0,0,0,0,0,0,0,0,0,0,0,0,0,0,0,0,0,0,0,0,0,0,0,0,0,0,0],"id":53,"left_children":[1,3,5,7,9,11,13,-1,15,17,19,21,23,-1,25,-1,-1,-1,-1,-1,-1,-1,-1,-1,-1,-1,-1],"loss_changes":[2.122341E2,5.1721992E1,1.9321732E1,4.499054E0,4.479406E0,2.8137054E0,1.6621399E1,0E0,1.5088669E1,5.868166E0,2.5350132E0,7.617674E-1,3.1002922E0,0E0,4.6435394E0,0E0,0E0,0E0,0E0,0E0,0E0,0E0,0E0,0E0,0E0,0E0,0E0],"parents":[2147483647,0,0,1,1,2,2,3,3,4,4,5,5,6,6,8,8,9,9,10,10,11,11,12,12,14,14],"right_children":[2,4,6,8,10,12,14,-1,16,18,20,22,24,-1,26,-1,-1,-1,-1,-1,-1,-1,-1,-1,-1,-1,-1],"split_conditions":[8.0998266E-1,7.0664185E-1,1.3726413E2,1.23140686E2,1.5609006E2,1.4644908E2,8.4802663E-1,-1.4799538E-1,6.8783E-1,8.0429125E-1,1.3698482E2,1.3530803E2,1.4917603E2,3.1471252E-3,1.3740227E2,4.81308E-3,-1.0413867E-1,3.7802957E-2,-2.822159E-2,-6.096802E-2,-9.5913885E-3,2.411518E-2,6.875827E-2,1.2133553E-1,3.160502E-2,3.0387726E-1,1.3164826E-1],"split_indices":[0,4,3,2,2,2,0,0,0,0,3,3,2,0,3,0,0,0,0,0,0,0,0,0,0,0,0],"split_type":[0,0,0,0,0,0,0,0,0,0,0,0,0,0,0,0,0,0,0,0,0,0,0,0,0,0,0],"sum_hessian":[8E1,5.3E1,2.7E1,2.2E1,3.1E1,2E1,7E0,5E0,1.7E1,1.4E1,1.7E1,8E0,1.2E1,1E0,6E0,4E0,1.3E1,1E1,4E0,2E0,1.5E1,3E0,5E0,1E1,2E0,2E0,4E0],"tree_param":{"num_deleted":"0","num_feature":"5","num_nodes":"27","size_leaf_vector":"1"}},{"base_weights":[-2.8504871E-3,-1.1571829E0,2.2263036E0,-1.9077139E0,-7.6986946E-2,1.4245697E0,1.8035705E-1,-1.9085449E-1,-1.512728E0,-4.148922E-1,5.322876E-1,2.460989E0,6.771909E-1,5.737305E-4,-8.1302844E-2,2.2102682E-2,-4.8663255E-2,1.083483E-3,7.731502E-2,7.584241E-2,1.7644705E-1,5.2649762E-2,-4.6324413E-2],"categories":[],"categories_nodes":[],"categories_segments":[],"categories_sizes":[],"default_left":[0,0,0,0,0,0,0,0,0,0,0,0,0,0,0,0,0,0,0,0,0,0,0],"id":54,"left_children":[1,3,5,7,9,11,-1,-1,13,15,17,19,21,-1,-1,-1,-1,-1,-1,-1,-1,-1,-1],"loss_changes":[2.1872379E2,4.5253487E1,2.6966217E1,1.9113617E1,5.1618915E0,1.3825401E1,0E0,0E0,5.0280075E0,8.08616E0,4.6264496E0,2.7135048E0,8.81029E0,0E0,0E0,0E0,0E0,0E0,0E0,0E0,0E0,0E0,0E0],"parents":[2147483647,0,0,1,1,2,2,3,3,4,4,5,5,8,8,9,9,10,10,11,11,12,12],"right_children":[2,4,6,8,10,12,-1,-1,14,16,18,20,22,-1,-1,-1,-1,-1,-1,-1,-1,-1,-1],"split_conditions":[8.0998266E-1,7.2126025E-1,8.6548424E-1,1.3516011E2,1.3722182E2,8.530319E-1,1.8035705E-1,-1.9085449E-1,1.2327777E2,1.3678333E2,7.752669E-1,8.4802663E-1,1.371865E2,5.737305E-4,-8.1302844E-2,2.2102682E-2,-4.8663255E-2,1.083483E-3,7.731502E-2,7.584241E-2,1.7644705E-1,5.2649762E-2,-4.6324413E-2],"split_indices":[0,0,1,3,3,0,0,0,2,3,0,0,3,0,0,0,0,0,0,0,0,0,0],"split_type":[0,0,0,0,0,0,0,0,0,0,0,0,0,0,0,0,0,0,0,0,0,0,0],"sum_hessian":[8.3E1,5.5E1,2.8E1,3.2E1,2.3E1,1.9E1,9E0,4E0,2.8E1,1.5E1,8E0,7E0,1.2E1,2E0,2.6E1,6E0,9E0,6E0,2E0,5E0,2E0,1E1,2E0],"tree_param":{"num_deleted":"0","num_feature":"5","num_nodes":"23","size_leaf_vector":"1"}},{"base_weights":[1.7211235E-1,-1.2190481E0,2.022212E0,-1.6426097E-1,-8.4566134E-1,1.4180145E0,1.7256622E-1,-2.0364588E-1,-1.4779794E0,1.595108E0,5.3233594E-1,-2.9871086E-4,-5.458374E-2,-1.3188897E-1,-5.690681E-2,6.279708E-2,2.1794014E-1,-5.642433E-2,5.450989E-2],"categories":[],"categories_nodes":[],"categories_segments":[],"categories_sizes":[],"default_left":[0,0,0,0,0,0,0,0,0,0,0,0,0,0,0,0,0,0,0],"id":55,"left_children":[1,3,5,-1,7,9,-1,11,13,15,17,-1,-1,-1,-1,-1,-1,-1,-1],"loss_changes":[2.1608939E2,3.4252914E1,2.6190765E1,0E0,1.6749249E1,3.385765E0,0E0,3.8553174E0,5.2750015E0,1.5147358E1,6.789331E0,0E0,0E0,0E0,0E0,0E0,0E0,0E0,0E0],"parents":[2147483647,0,0,1,1,2,2,4,4,5,5,7,7,8,8,9,9,10,10],"right_children":[2,4,6,-1,8,10,-1,12,14,16,18,-1,-1,-1,-1,-1,-1,-1,-1],"split_conditions":[7.976889E-1,6.607993E-1,8.7526876E-1,-1.6426097E-1,1.3770023E2,1.372818E2,1.7256622E-1,7.871377E-1,1.3793239E2,1.37242E2,1.3731052E2,-2.9871086E-4,-5.458374E-2,-1.3188897E-1,-5.690681E-2,6.279708E-2,2.1794014E-1,-5.642433E-2,5.450989E-2],"split_indices":[1,0,1,0,3,3,0,0,3,3,3,0,0,0,0,0,0,0,0],"split_type":[0,0,0,0,0,0,0,0,0,0,0,0,0,0,0,0,0,0,0],"sum_hessian":[8.2E1,4.7E1,3.5E1,6E0,4.1E1,2.6E1,9E0,2.1E1,2E1,2.1E1,5E0,1.8E1,3E0,3E0,1.7E1,2E1,1E0,1E0,4E0],"tree_param":{"num_deleted":"0","num_feature":"5","num_nodes":"19","size_leaf_vector":"1"}},{"base_weights":[2.909975E-1,-1.4950957E0,1.5833608E0,-1.367472E-1,-1.1037867E0,1.0498003E0,1.6462433E-1,5.5314254E-2,-1.236441E0,1.972505E0,5.4470634E-1,-8.134141E-2,-2.4408875E-2,1.106799E-1,-1.6987992E-2,-2.0334626E-2,3.4999337E-2],"categories":[],"categories_nodes":[],"categories_segments":[],"categories_sizes":[],"default_left":[0,0,0,0,0,0,0,0,0,0,0,0,0,0,0,0,0],"id":56,"left_children":[1,3,5,-1,7,9,-1,-1,11,13,15,-1,-1,-1,-1,-1,-1],"loss_changes":[1.7548839E2,1.2506447E1,3.6668114E1,0E0,8.990421E0,1.5237408E1,0E0,0E0,6.508629E0,7.441742E0,3.830286E0,0E0,0E0,0E0,0E0,0E0,0E0],"parents":[2147483647,0,0,1,1,2,2,4,4,5,5,8,8,9,9,10,10],"right_children":[2,4,6,-1,8,10,-1,-1,12,14,16,-1,-1,-1,-1,-1,-1],"split_conditions":[7.6181597E-1,6.65688E-1,8.6548424E-1,-1.367472E-1,6.661185E-1,1.4694801E2,1.6462433E-1,5.5314254E-2,7.044736E-1,8.288307E-1,1.4758939E2,-8.134141E-2,-2.4408875E-2,1.106799E-1,-1.6987992E-2,-2.0334626E-2,3.4999337E-2],"split_indices":[0,0,1,0,0,2,0,0,1,4,2,0,0,0,0,0,0],"split_type":[0,0,0,0,0,0,0,0,0,0,0,0,0,0,0,0,0],"sum_hessian":[7.4E1,3.1E1,4.3E1,6E0,2.5E1,3.4E1,9E0,1E0,2.4E1,1.1E1,2.3E1,1.5E1,9E0,1E1,1E0,3E0,2E1],"tree_param":{"num_deleted":"0","num_feature":"5","num_nodes":"17","size_leaf_vector":"1"}},{"base_weights":[-6.5530217E-3,-9.679863E-1,1.8833865E0,-1.8004342E0,-2.1172555E-1,1.4593195E0,3.6270447E0,-1.7117982E-1,-1.3692932E0,-5.0037265E-1,2.2642986E-1,2.74234E0,1.0014473E0,2.0253907E-1,4.830246E-2,-5.0797354E-2,-1.100558E-1,-5.663986E-2,-9.679631E-3,3.66004E-2,-2.427063E-2,1.4941788E-2,1.5856369E-1,2.334584E-2,9.6372224E-2],"categories":[],"categories_nodes":[],"categories_segments":[],"categories_sizes":[],"default_left":[0,0,0,0,0,0,0,0,0,0,0,0,0,0,0,0,0,0,0,0,0,0,0,0,0],"id":57,"left_children":[1,3,5,7,9,11,13,-1,15,17,19,21,23,-1,-1,-1,-1,-1,-1,-1,-1,-1,-1,-1,-1],"loss_changes":[1.5627242E2,3.550302E1,1.6150398E1,1.4207001E1,4.0339403E0,1.1940178E1,1.7245483E0,0E0,4.5239716E0,3.4669876E0,5.0339217E0,5.3409195E0,8.999519E0,0E0,0E0,0E0,0E0,0E0,0E0,0E0,0E0,0E0,0E0,0E0,0E0],"parents":[2147483647,0,0,1,1,2,2,3,3,4,4,5,5,6,6,8,8,9,9,10,10,11,11,12,12],"right_children":[2,4,6,8,10,12,14,-1,16,18,20,22,24,-1,-1,-1,-1,-1,-1,-1,-1,-1,-1,-1,-1],"split_conditions":[8.0998266E-1,7.0603573E-1,9.1981953E-1,1.3516011E2,7.6461095E-1,8.4957564E-1,9.309273E-1,-1.7117982E-1,1.6328267E2,1.3722182E2,8.0322087E-1,1.4014458E2,1.4758939E2,2.0253907E-1,4.830246E-2,-5.0797354E-2,-1.100558E-1,-5.663986E-2,-9.679631E-3,3.66004E-2,-2.427063E-2,1.4941788E-2,1.5856369E-1,2.334584E-2,9.6372224E-2],"split_indices":[0,4,0,3,4,0,0,0,2,3,0,2,2,0,0,0,0,0,0,0,0,0,0,0,0],"split_type":[0,0,0,0,0,0,0,0,0,0,0,0,0,0,0,0,0,0,0,0,0,0,0,0,0],"sum_hessian":[8.4E1,5.6E1,2.8E1,2.6E1,3E1,2.4E1,4E0,4E0,2.2E1,1.8E1,1.2E1,5E0,1.9E1,3E0,1E0,1.7E1,5E0,5E0,1.3E1,7E0,5E0,1E0,4E0,1.3E1,6E0],"tree_param":{"num_deleted":"0","num_feature":"5","num_nodes":"25","size_leaf_vector":"1"}},{"base_weights":[-1.4953439E-1,-1.3585734E0,1.4092168E0,-1.5463677E-1,-1.0644848E0,9.103683E-1,1.8342946E-1,-1.3242396E0,-2.592912E-1,2.3966446E0,6.5646195E-1,-4.184265E-2,-8.238602E-2,-3.06245E-2,1.4352265E-2,2.2602845E-2,2.057602E-1,4.9787577E-2,1.3514111E-2],"categories":[],"categories_nodes":[],"categories_segments":[],"categories_sizes":[],"default_left":[0,0,0,0,0,0,0,0,0,0,0,0,0,0,0,0,0,0,0],"id":58,"left_children":[1,3,5,-1,7,9,-1,11,13,15,17,-1,-1,-1,-1,-1,-1,-1,-1],"loss_changes":[1.5079721E2,1.9657707E1,3.6108177E1,0E0,8.022755E0,9.747944E0,0E0,3.3509026E0,2.2984314E0,1.1507252E1,3.268588E0,0E0,0E0,0E0,0E0,0E0,0E0,0E0,0E0],"parents":[2147483647,0,0,1,1,2,2,4,4,5,5,7,7,8,8,9,9,10,10],"right_children":[2,4,6,-1,8,10,-1,12,14,16,18,-1,-1,-1,-1,-1,-1,-1,-1],"split_conditions":[7.767923E-1,6.620493E-1,8.7526876E-1,-1.5463677E-1,7.2126025E-1,1.4170424E2,1.8342946E-1,6.9831616E-1,1.5853865E2,1.4131348E2,1.4771031E2,-4.184265E-2,-8.238602E-2,-3.06245E-2,1.4352265E-2,2.2602845E-2,2.057602E-1,4.9787577E-2,1.3514111E-2],"split_indices":[1,1,1,0,0,2,0,0,2,2,2,0,0,0,0,0,0,0,0],"split_type":[0,0,0,0,0,0,0,0,0,0,0,0,0,0,0,0,0,0,0],"sum_hessian":[7.8E1,4.4E1,3.4E1,5E0,3.9E1,2.9E1,5E0,2.9E1,1E1,3E0,2.6E1,1.3E1,1.6E1,6E0,4E0,2E0,1E0,1.3E1,1.3E1],"tree_param":{"num_deleted":"0","num_feature":"5","num_nodes":"19","size_leaf_vector":"1"}},{"base_weights":[-9.070678E-2,-1.4444768E0,1.2336898E0,-2.9640625E0,-9.402244E-1,3.1639278E-1,1.7655549E0,-1.5488604E-1,-4.4028472E-2,-6.5082395E-1,-1.6396451E0,4.2489928E-1,-1.65802E-2,1.2350601E0,2.8710976E0,-4.0250927E-2,3.7413787E-2,-1.02375165E-1,-3.0897332E-2,4.378163E-3,5.4102935E-2,1.9003078E-2,7.8717045E-2,1.9705467E-1,-1.1296336E-2],"categories":[],"categories_nodes":[],"categories_segments":[],"categories_sizes":[],"default_left":[0,0,0,0,0,0,0,0,0,0,0,0,0,0,0,0,0,0,0,0,0,0,0,0,0],"id":59,"left_children":[1,3,5,7,9,11,13,-1,-1,15,17,19,-1,21,23,-1,-1,-1,-1,-1,-1,-1,-1,-1,-1],"loss_changes":[1.5238803E2,2.939582E1,2.0420158E1,5.6999207E-2,5.6124954E0,1.3362001E0,1.2289108E1,0E0,0E0,5.995715E0,2.4851246E0,3.2305045E0,0E0,5.2033405E0,2.7400826E1,0E0,0E0,0E0,0E0,0E0,0E0,0E0,0E0,0E0,0E0],"parents":[2147483647,0,0,1,1,2,2,3,3,4,4,5,5,6,6,9,9,10,10,11,11,13,13,14,14],"right_children":[2,4,6,8,10,12,14,-1,-1,16,18,20,-1,22,24,-1,-1,-1,-1,-1,-1,-1,-1,-1,-1],"split_conditions":[7.65552E-1,6.921961E-1,8.404617E-1,1.3784723E2,1.6328267E2,8.308223E-1,1.3726413E2,-1.5488604E-1,-4.4028472E-2,1.6287599E2,7.0969903E-1,1.3711115E2,-1.65802E-2,1.453652E2,1.4706953E2,-4.0250927E-2,3.7413787E-2,-1.02375165E-1,-3.0897332E-2,4.378163E-3,5.4102935E-2,1.9003078E-2,7.8717045E-2,1.9705467E-1,-1.1296336E-2],"split_indices":[4,1,1,3,2,1,3,0,0,2,1,3,0,2,2,0,0,0,0,0,0,0,0,0,0],"split_type":[0,0,0,0,0,0,0,0,0,0,0,0,0,0,0,0,0,0,0,0,0,0,0,0,0],"sum_hessian":[8.3E1,4.1E1,4.2E1,9E0,3.2E1,1.6E1,2.6E1,8E0,1E0,2.4E1,8E0,1.4E1,2E0,1.9E1,7E0,2.2E1,2E0,5E0,3E0,1E1,4E0,6E0,1.3E1,5E0,2E0],"tree_param":{"num_deleted":"0","num_feature":"5","num_nodes":"25","size_leaf_vector":"1"}},{"base_weights":[1.4478518E-1,-7.708668E-1,2.0046399E0,-1.46738E0,1.8993695E-1,1.6696326E0,2.0640767E-1,-1.8942212E0,-4.802995E-1,-2.1205817E-1,4.0418816E-1,1.2955831E0,2.3025398E0,-1.484198E-1,-7.4530244E-2,1.3158723E-2,-4.7136907E-2,3.524437E-2,-3.940061E-2,5.3101856E-2,4.3085273E-4,1.4290619E-2,8.3098546E-2,1.7851385E-1,6.424573E-2],"categories":[],"categories_nodes":[],"categories_segments":[],"categories_sizes":[],"default_left":[0,0,0,0,0,0,0,0,0,0,0,0,0,0,0,0,0,0,0,0,0,0,0,0,0],"id":60,"left_children":[1,3,5,7,9,11,-1,13,15,17,19,21,23,-1,-1,-1,-1,-1,-1,-1,-1,-1,-1,-1,-1],"loss_changes":[1.3948665E2,3.7085396E1,1.2315094E1,1.2572662E1,2.152782E0,2.935341E0,0E0,5.1134872E0,4.0300264E0,5.3085265E0,4.1544657E0,6.1844044E0,5.7331467E0,0E0,0E0,0E0,0E0,0E0,0E0,0E0,0E0,0E0,0E0,0E0,0E0],"parents":[2147483647,0,0,1,1,2,2,3,3,4,4,5,5,7,7,8,8,9,9,10,10,11,11,12,12],"right_children":[2,4,6,8,10,12,-1,14,16,18,20,22,24,-1,-1,-1,-1,-1,-1,-1,-1,-1,-1,-1,-1],"split_conditions":[7.873392E-1,7.311525E-1,8.579441E-1,1.3893507E2,1.509769E2,1.37242E2,2.0640767E-1,1.3725647E2,6.958324E-1,1.4771031E2,1.5583562E2,1.453652E2,1.3740724E2,-1.484198E-1,-7.4530244E-2,1.3158723E-2,-4.7136907E-2,3.524437E-2,-3.940061E-2,5.3101856E-2,4.3085273E-4,1.4290619E-2,8.3098546E-2,1.7851385E-1,6.424573E-2],"split_indices":[4,1,4,3,2,3,0,3,4,2,2,2,3,0,0,0,0,0,0,0,0,0,0,0,0],"split_type":[0,0,0,0,0,0,0,0,0,0,0,0,0,0,0,0,0,0,0,0,0,0,0,0,0],"sum_hessian":[8E1,5.4E1,2.6E1,3.1E1,2.3E1,2.4E1,2E0,2.1E1,1E1,8E0,1.5E1,1.7E1,7E0,4E0,1.7E1,4E0,6E0,3E0,5E0,5E0,1E1,5E0,1.2E1,2E0,5E0],"tree_param":{"num_deleted":"0","num_feature":"5","num_nodes":"25","size_leaf_vector":"1"}},{"base_weights":[6.738948E-2,-9.7608364E-1,1.2619224E0,-1.1576792E-1,-7.615186E-1,8.9137083E-1,2.4803975E0,6.198273E-2,-8.405631E-1,1.385771E0,2.7945995E-1,1.3067722E-1,3.5380553E-2,-5.6188524E-2,-1.63908E-2,1.0205449E-1,4.4401042E-2,-3.92835E-2,2.4387034E-2],"categories":[],"categories_nodes":[],"categories_segments":[],"categories_sizes":[],"default_left":[0,0,0,0,0,0,0,0,0,0,0,0,0,0,0,0,0,0,0],"id":61,"left_children":[1,3,5,-1,7,9,11,-1,13,15,17,-1,-1,-1,-1,-1,-1,-1,-1],"loss_changes":[1.0967402E2,1.17428055E1,1.6300865E1,0E0,7.685648E0,9.596188E0,2.749939E-1,0E0,5.585375E0,4.0587997E0,3.9327395E0,0E0,0E0,0E0,0E0,0E0,0E0,0E0,0E0],"parents":[2147483647,0,0,1,1,2,2,4,4,5,5,6,6,8,8,9,9,10,10],"right_children":[2,4,6,-1,8,10,12,-1,14,16,18,-1,-1,-1,-1,-1,-1,-1,-1],"split_conditions":[7.65552E-1,6.65688E-1,8.7526876E-1,-1.1576792E-1,6.661185E-1,1.4694801E2,9.380221E-1,6.198273E-2,7.2126025E-1,8.4957564E-1,1.4758939E2,1.3067722E-1,3.5380553E-2,-5.6188524E-2,-1.63908E-2,1.0205449E-1,4.4401042E-2,-3.92835E-2,2.4387034E-2],"split_indices":[4,0,1,0,0,2,0,0,0,0,2,0,0,0,0,0,0,0,0],"split_type":[0,0,0,0,0,0,0,0,0,0,0,0,0,0,0,0,0,0,0],"sum_hessian":[8.6E1,4.6E1,4E1,5E0,4.1E1,3.2E1,8E0,1E0,4E1,1.7E1,1.5E1,7E0,1E0,2.5E1,1.5E1,6E0,1.1E1,2E0,1.3E1],"tree_param":{"num_deleted":"0","num_feature":"5","num_nodes":"19","size_leaf_vector":"1"}},{"base_weights":[-1.2789145E-1,-7.7037656E-1,1.8059585E0,-1.3217778E0,-1.3536914E-1,1.3546501E0,3.2725296E0,-1.3844803E-1,-1.016146E0,-5.315967E-1,4.70253E-1,2.3549398E-2,1.5305603E0,1.951711E-1,3.4496307E-2,-3.9879937E-4,-6.453695E-2,1.800232E-2,-4.0603474E-2,3.439804E-2,-2.0609539E-2,1.6828155E-2,-1.5061951E-2,3.1824343E-2,8.989077E-2],"categories":[],"categories_nodes":[],"categories_segments":[],"categories_sizes":[],"default_left":[0,0,0,0,0,0,0,0,0,0,0,0,0,0,0,0,0,0,0,0,0,0,0,0,0],"id":62,"left_children":[1,3,5,7,9,11,13,-1,15,17,19,21,23,-1,-1,-1,-1,-1,-1,-1,-1,-1,-1,-1,-1],"loss_changes":[9.954639E1,2.0829704E1,8.80439E0,1.1340099E1,7.208946E0,3.9445744E0,3.8243065E0,0E0,7.741125E0,4.793852E0,2.5889502E0,4.0637562E-1,2.4399033E0,0E0,0E0,0E0,0E0,0E0,0E0,0E0,0E0,0E0,0E0,0E0,0E0],"parents":[2147483647,0,0,1,1,2,2,3,3,4,4,5,5,6,6,8,8,9,9,10,10,11,11,12,12],"right_children":[2,4,6,8,10,12,14,-1,16,18,20,22,24,-1,-1,-1,-1,-1,-1,-1,-1,-1,-1,-1,-1],"split_conditions":[8.2689613E-1,7.311525E-1,8.5800886E-1,1.3725647E2,1.3731052E2,1.4362082E2,9.184072E-1,-1.3844803E-1,1.3771428E2,1.4730025E2,8.28484E-1,8.7526876E-1,8.5703284E-1,1.951711E-1,3.4496307E-2,-3.9879937E-4,-6.453695E-2,1.800232E-2,-4.0603474E-2,3.439804E-2,-2.0609539E-2,1.6828155E-2,-1.5061951E-2,3.1824343E-2,8.989077E-2],"split_indices":[4,1,4,3,3,2,1,0,3,2,1,1,1,0,0,0,0,0,0,0,0,0,0,0,0],"split_type":[0,0,0,0,0,0,0,0,0,0,0,0,0,0,0,0,0,0,0,0,0,0,0,0,0],"sum_hessian":[7.8E1,5.9E1,1.9E1,3.1E1,2.8E1,1.6E1,3E0,4E0,2.7E1,1.7E1,1.1E1,2E0,1.4E1,2E0,1E0,6E0,2.1E1,